{"learner":{"attributes":{"scikit_learn":"{\"_estimator_type\": \"classifier\"}"},"feature_names":["legal_addon_pre_ren","contents_cover","ad_buildings","legal_addon_post_ren","WoE_payment_method","WoE_p1_mar_status","max_days_unocc","keycare_addon_pre_ren","hp1_addon_post_ren","hp2_addon_post_ren","hp3_addon_post_ren","keycare_addon_post_ren","garden_addon_post_ren","sum_insured_buildings","garden_addon_pre_ren","mta_flag","home_em_addon_pre_ren","ad_contents","house_age","bedrooms"],"feature_types":[],"gradient_booster":{"model":{"cats":{"enc":[],"feature_segments":[],"sorted_idx":[]},"gbtree_model_param":{"num_parallel_tree":"1","num_trees":"500"},"iteration_indptr":[0,1,2,3,4,5,6,7,8,9,10,11,12,13,14,15,16,17,18,19,20,21,22,23,24,25,26,27,28,29,30,31,32,33,34,35,36,37,38,39,40,41,42,43,44,45,46,47,48,49,50,51,52,53,54,55,56,57,58,59,60,61,62,63,64,65,66,67,68,69,70,71,72,73,74,75,76,77,78,79,80,81,82,83,84,85,86,87,88,89,90,91,92,93,94,95,96,97,98,99,100,101,102,103,104,105,106,107,108,109,110,111,112,113,114,115,116,117,118,119,120,121,122,123,124,125,126,127,128,129,130,131,132,133,134,135,136,137,138,139,140,141,142,143,144,145,146,147,148,149,150,151,152,153,154,155,156,157,158,159,160,161,162,163,164,165,166,167,168,169,170,171,172,173,174,175,176,177,178,179,180,181,182,183,184,185,186,187,188,189,190,191,192,193,194,195,196,197,198,199,200,201,202,203,204,205,206,207,208,209,210,211,212,213,214,215,216,217,218,219,220,221,222,223,224,225,226,227,228,229,230,231,232,233,234,235,236,237,238,239,240,241,242,243,244,245,246,247,248,249,250,251,252,253,254,255,256,257,258,259,260,261,262,263,264,265,266,267,268,269,270,271,272,273,274,275,276,277,278,279,280,281,282,283,284,285,286,287,288,289,290,291,292,293,294,295,296,297,298,299,300,301,302,303,304,305,306,307,308,309,310,311,312,313,314,315,316,317,318,319,320,321,322,323,324,325,326,327,328,329,330,331,332,333,334,335,336,337,338,339,340,341,342,343,344,345,346,347,348,349,350,351,352,353,354,355,356,357,358,359,360,361,362,363,364,365,366,367,368,369,370,371,372,373,374,375,376,377,378,379,380,381,382,383,384,385,386,387,388,389,390,391,392,393,394,395,396,397,398,399,400,401,402,403,404,405,406,407,408,409,410,411,412,413,414,415,416,417,418,419,420,421,422,423,424,425,426,427,428,429,430,431,432,433,434,435,436,437,438,439,440,441,442,443,444,445,446,447,448,449,450,451,452,453,454,455,456,457,458,459,460,461,462,463,464,465,466,467,468,469,470,471,472,473,474,475,476,477,478,479,480,481,482,483,484,485,486,487,488,489,490,491,492,493,494,495,496,497,498,499,500],"tree_info":[0,0,0,0,0,0,0,0,0,0,0,0,0,0,0,0,0,0,0,0,0,0,0,0,0,0,0,0,0,0,0,0,0,0,0,0,0,0,0,0,0,0,0,0,0,0,0,0,0,0,0,0,0,0,0,0,0,0,0,0,0,0,0,0,0,0,0,0,0,0,0,0,0,0,0,0,0,0,0,0,0,0,0,0,0,0,0,0,0,0,0,0,0,0,0,0,0,0,0,0,0,0,0,0,0,0,0,0,0,0,0,0,0,0,0,0,0,0,0,0,0,0,0,0,0,0,0,0,0,0,0,0,0,0,0,0,0,0,0,0,0,0,0,0,0,0,0,0,0,0,0,0,0,0,0,0,0,0,0,0,0,0,0,0,0,0,0,0,0,0,0,0,0,0,0,0,0,0,0,0,0,0,0,0,0,0,0,0,0,0,0,0,0,0,0,0,0,0,0,0,0,0,0,0,0,0,0,0,0,0,0,0,0,0,0,0,0,0,0,0,0,0,0,0,0,0,0,0,0,0,0,0,0,0,0,0,0,0,0,0,0,0,0,0,0,0,0,0,0,0,0,0,0,0,0,0,0,0,0,0,0,0,0,0,0,0,0,0,0,0,0,0,0,0,0,0,0,0,0,0,0,0,0,0,0,0,0,0,0,0,0,0,0,0,0,0,0,0,0,0,0,0,0,0,0,0,0,0,0,0,0,0,0,0,0,0,0,0,0,0,0,0,0,0,0,0,0,0,0,0,0,0,0,0,0,0,0,0,0,0,0,0,0,0,0,0,0,0,0,0,0,0,0,0,0,0,0,0,0,0,0,0,0,0,0,0,0,0,0,0,0,0,0,0,0,0,0,0,0,0,0,0,0,0,0,0,0,0,0,0,0,0,0,0,0,0,0,0,0,0,0,0,0,0,0,0,0,0,0,0,0,0,0,0,0,0,0,0,0,0,0,0,0,0,0,0,0,0,0,0,0,0,0,0,0,0,0,0,0,0,0,0,0,0,0,0,0,0,0,0,0,0,0,0,0,0,0,0,0,0,0,0,0,0,0,0,0,0,0,0,0,0,0,0,0,0,0,0,0,0,0,0,0,0,0,0,0,0,0,0,0,0,0,0,0,0,0,0,0,0],"trees":[{"base_weights":[6.832585E-4,2.0483707E-1,-8.2970905E-1,4.8844668E-1,-1.5014146E-1,-4.3514195E-1,-1.2576807E0,-6.9832094E-3,5.799515E-1,-7.5821936E-1,-1.4718914E-2,-6.425812E-1,-3.4717667E-1,-1.5433184E0,-1.1196147E0,1.4845574E-1,-2.204669E-1,7.2808677E-1,3.2767457E-1,-8.405919E-1,-4.3836418E-1,3.7414823E-2,-6.214218E-1,-6.584376E-1,2.4502252E-1,-3.710575E-1,5.4345936E-1,-1.5564731E0,-8.037855E-1,-1.1402596E0,-2.6460868E-1,2.3787695E-1,-6.2892092E-3,-1.3001299E0,-2.0493978E-1,7.472746E-1,-7.8455865E-1,3.550029E-1,-1.286764E0,-3.269177E-1,-8.941102E-1,-3.1804505E-1,-8.5705537E-1,6.135213E-2,-4.2757684E-1,-7.041561E-1,-3.4113926E-1,-6.818907E-1,-1.0522929E-1,4.273535E-2,-4.7719836E-2,-5.10278E-1,-2.4968876E-1,6.3638526E-1,-4.0832368E-1,-1.5964309E0,-7.473295E-2,-4.4808275E-1,-1.0103832E0,-1.2475294E0,-1.0537727E0,-3.7861916E-1,4.8275925E-2,-1.01703415E-2,1.2931488E-2,-3.9610816E-3,3.6673483E-2,-2.7750824E-2,-7.356467E-2,-1.5425492E-3,-1.4720911E-2,4.1899584E-2,2.8346082E-2,-2.4048196E-2,-5.495714E-2,2.0205075E-2,-1.5288616E-2,2.0553691E-2,-6.81805E-2,-4.758371E-3,-3.0694205E-2,-4.3889854E-2,-7.044858E-2,-3.7503105E-3,-2.7170897E-2,-7.98114E-3,-4.6593465E-2,2.4490063E-3,5.4736692E-2,-7.546823E-2,-1.0691237E-2,-1.4301106E-2,-3.7654586E-2,-4.71259E-2,-1.3474126E-2,-3.5031144E-2,-1.2882568E-2,2.4220258E-2,-2.0012518E-2,-3.358687E-2,1.9301636E-2,-2.772204E-2,-9.146198E-3,-1.1592637E-2,-7.74622E-2,3.3644553E-2,-3.3611683E-5,1.5442706E-2,-4.948019E-2,-7.395559E-2,-8.418467E-2,-3.5743605E-2,3.157219E-3,-6.542023E-2,-1.3190924E-2,-6.508907E-2,-4.7120094E-2,-5.3005207E-2,1.8206475E-2,-1.3727903E-2,-7.789474E-2],"categories":[],"categories_nodes":[],"categories_segments":[],"categories_sizes":[],"default_left":[0,0,0,0,0,0,0,0,0,0,0,0,0,0,0,0,0,0,0,0,0,0,0,0,0,0,0,0,0,0,0,0,0,0,0,0,0,0,0,0,0,0,0,0,0,0,0,0,0,0,0,0,0,0,0,0,0,0,0,0,0,0,0,0,0,0,0,0,0,0,0,0,0,0,0,0,0,0,0,0,0,0,0,0,0,0,0,0,0,0,0,0,0,0,0,0,0,0,0,0,0,0,0,0,0,0,0,0,0,0,0,0,0,0,0,0,0,0,0,0,0],"id":0,"left_children":[1,3,5,7,9,11,13,15,17,19,21,23,25,27,29,31,33,35,37,39,41,43,45,47,49,51,53,55,57,59,61,63,65,67,69,71,73,75,77,79,81,83,85,87,89,91,93,95,97,-1,99,101,103,105,107,109,-1,111,113,115,117,119,-1,-1,-1,-1,-1,-1,-1,-1,-1,-1,-1,-1,-1,-1,-1,-1,-1,-1,-1,-1,-1,-1,-1,-1,-1,-1,-1,-1,-1,-1,-1,-1,-1,-1,-1,-1,-1,-1,-1,-1,-1,-1,-1,-1,-1,-1,-1,-1,-1,-1,-1,-1,-1,-1,-1,-1,-1,-1,-1],"loss_changes":[7.3891343E3,3.5223076E3,1.4517129E3,8.817339E2,1.2794646E3,8.1370056E1,1.6069385E2,1.006814E2,6.131553E2,7.406775E1,4.0207654E2,1.8944092E1,6.710327E1,1.1562012E1,4.8716064E1,2.431422E1,2.101614E1,3.0075195E2,2.6841113E2,6.1416748E1,2.8924347E1,1.3026842E2,2.298117E1,1.6828247E1,4.4030366E0,5.158313E1,7.575472E0,5.571289E-1,1.285923E0,2.3679443E1,9.714052E0,1.0250107E1,3.4707092E1,1.2570171E0,1.9611626E1,1.6648047E2,1.1725952E1,1.939859E2,1.38706665E1,1.4100918E1,1.5636475E1,2.4753323E1,6.479233E0,1.4216173E2,1.3199258E2,1.5547333E1,9.599442E0,9.697388E0,9.679626E0,0E0,4.9009924E0,2.0441742E1,3.747E1,1.8260326E0,3.6453109E0,5.220581E0,0E0,1.6647048E0,2.8899832E0,1.8539917E1,1.4031128E1,7.019415E0,0E0,0E0,0E0,0E0,0E0,0E0,0E0,0E0,0E0,0E0,0E0,0E0,0E0,0E0,0E0,0E0,0E0,0E0,0E0,0E0,0E0,0E0,0E0,0E0,0E0,0E0,0E0,0E0,0E0,0E0,0E0,0E0,0E0,0E0,0E0,0E0,0E0,0E0,0E0,0E0,0E0,0E0,0E0,0E0,0E0,0E0,0E0,0E0,0E0,0E0,0E0,0E0,0E0,0E0,0E0,0E0,0E0,0E0,0E0],"parents":[2147483647,0,0,1,1,2,2,3,3,4,4,5,5,6,6,7,7,8,8,9,9,10,10,11,11,12,12,13,13,14,14,15,15,16,16,17,17,18,18,19,19,20,20,21,21,22,22,23,23,24,24,25,25,26,26,27,27,28,28,29,29,30,30,31,31,32,32,33,33,34,34,35,35,36,36,37,37,38,38,39,39,40,40,41,41,42,42,43,43,44,44,45,45,46,46,47,47,48,48,50,50,51,51,52,52,53,53,54,54,55,55,57,57,58,58,59,59,60,60,61,61],"right_children":[2,4,6,8,10,12,14,16,18,20,22,24,26,28,30,32,34,36,38,40,42,44,46,48,50,52,54,56,58,60,62,64,66,68,70,72,74,76,78,80,82,84,86,88,90,92,94,96,98,-1,100,102,104,106,108,110,-1,112,114,116,118,120,-1,-1,-1,-1,-1,-1,-1,-1,-1,-1,-1,-1,-1,-1,-1,-1,-1,-1,-1,-1,-1,-1,-1,-1,-1,-1,-1,-1,-1,-1,-1,-1,-1,-1,-1,-1,-1,-1,-1,-1,-1,-1,-1,-1,-1,-1,-1,-1,-1,-1,-1,-1,-1,-1,-1,-1,-1,-1,-1],"split_conditions":[8.86645E-1,5.2476443E-2,4.1876435E-1,1E0,1E0,1E0,1E0,-4.7659017E-2,-4.7659017E-2,-3.9958887E-2,1E0,1E0,1E0,1E0,1E0,1E0,7E0,1E0,1E0,4.1876435E-1,1E0,1E0,4E0,4E0,1E0,5.8E1,5.2476443E-2,6E1,5E1,5.9E1,1.25E2,1.1E1,1.09E2,0E0,4.8E1,1E0,5.2E1,1E0,1E0,-1.653792E-1,1E0,6.1E1,4.1876435E-1,1E0,1E0,4.1876435E-1,1E0,1.05E2,5.4E1,4.273535E-2,3E0,4E0,1E0,1E0,1E0,4.9E1,-7.473295E-2,4.8E1,1.07E2,4E0,1.4E2,1E0,4.8275925E-2,-1.01703415E-2,1.2931488E-2,-3.9610816E-3,3.6673483E-2,-2.7750824E-2,-7.356467E-2,-1.5425492E-3,-1.4720911E-2,4.1899584E-2,2.8346082E-2,-2.4048196E-2,-5.495714E-2,2.0205075E-2,-1.5288616E-2,2.0553691E-2,-6.81805E-2,-4.758371E-3,-3.0694205E-2,-4.3889854E-2,-7.044858E-2,-3.7503105E-3,-2.7170897E-2,-7.98114E-3,-4.6593465E-2,2.4490063E-3,5.4736692E-2,-7.546823E-2,-1.0691237E-2,-1.4301106E-2,-3.7654586E-2,-4.71259E-2,-1.3474126E-2,-3.5031144E-2,-1.2882568E-2,2.4220258E-2,-2.0012518E-2,-3.358687E-2,1.9301636E-2,-2.772204E-2,-9.146198E-3,-1.1592637E-2,-7.74622E-2,3.3644553E-2,-3.3611683E-5,1.5442706E-2,-4.948019E-2,-7.395559E-2,-8.418467E-2,-3.5743605E-2,3.157219E-3,-6.542023E-2,-1.3190924E-2,-6.508907E-2,-4.7120094E-2,-5.3005207E-2,1.8206475E-2,-1.3727903E-2,-7.789474E-2],"split_indices":[5,4,4,1,1,1,1,5,5,5,12,7,15,15,15,15,18,8,8,4,15,11,19,19,0,18,4,18,18,18,18,18,18,18,18,15,18,12,17,5,11,18,4,7,7,4,0,18,18,0,19,19,8,12,0,18,0,18,18,19,18,11,0,0,0,0,0,0,0,0,0,0,0,0,0,0,0,0,0,0,0,0,0,0,0,0,0,0,0,0,0,0,0,0,0,0,0,0,0,0,0,0,0,0,0,0,0,0,0,0,0,0,0,0,0,0,0,0,0,0,0],"split_type":[0,0,0,0,0,0,0,0,0,0,0,0,0,0,0,0,0,0,0,0,0,0,0,0,0,0,0,0,0,0,0,0,0,0,0,0,0,0,0,0,0,0,0,0,0,0,0,0,0,0,0,0,0,0,0,0,0,0,0,0,0,0,0,0,0,0,0,0,0,0,0,0,0,0,0,0,0,0,0,0,0,0,0,0,0,0,0,0,0,0,0,0,0,0,0,0,0,0,0,0,0,0,0,0,0,0,0,0,0,0,0,0,0,0,0,0,0,0,0,0,0],"sum_hessian":[4.358494E4,3.498474E4,8.600202E3,1.9447271E4,1.5537466E4,4.4759053E3,4.124297E3,3.0318604E3,1.6415412E4,2.8290505E3,1.2708416E4,1.3306147E3,3.1452905E3,1.3403698E3,2.7839272E3,1.7543456E3,1.2775149E3,1.03409795E4,6.074432E3,2.248144E3,5.809065E2,1.1703511E4,1.0049045E3,1.3076257E3,2.2988913E1,3.063835E3,8.145565E1,1.3157258E3,2.4643902E1,2.7178516E3,6.607561E1,1.1119188E3,6.424267E2,1.6847782E1,1.2606671E3,1.0212013E4,1.2896674E2,5.9741475E3,1.00285034E2,2.1297404E2,2.0351699E3,4.5278757E2,1.2811896E2,1.1131553E4,5.719582E2,7.74436E2,2.304685E2,1.2540474E3,5.3578377E1,6.9455647E0,1.6043346E1,1.425097E3,1.6387379E3,7.4607864E1,6.847782E0,7.8308295E2,5.326429E2,1.0396673E1,1.4247228E1,1.2066565E3,1.5111951E3,6.1178932E1,4.8966737E0,4.933115E1,1.0625878E3,5.8570996E2,5.6716736E1,4.048891E0,1.2798891E1,4.2881982E2,8.318473E2,6.791636E3,3.4203762E3,6.707838E1,6.188836E1,5.5614463E3,4.1270087E2,4.097782E0,9.618725E1,1.1875177E2,9.422228E1,1.975477E3,5.969279E1,2.1871019E2,2.3407738E2,1.2845011E1,1.1527394E2,1.1000989E4,1.305635E2,9.329057E1,4.786676E2,8.207006E1,6.9236597E2,2.309501E1,2.0737349E2,1.2001674E3,5.3880043E1,1.7540575E1,3.6037804E1,6.4483366E0,9.595011E0,1.254813E3,1.7028403E2,1.6177896E3,2.0948338E1,7.065953E1,3.9483368E0,3.1983368E0,3.6494455E0,3.421623E2,4.4092062E2,6.6983366E0,3.6983368E0,9.548891E0,4.6983366E0,1.0214481E3,1.8520842E2,1.5047985E3,6.3966737E0,5.7428932E1,3.75E0],"tree_param":{"num_deleted":"0","num_feature":"20","num_nodes":"121","size_leaf_vector":"1"}},{"base_weights":[-2.7084386E-3,1.9014469E-1,-7.857292E-1,4.5871574E-1,-1.4367259E-1,-4.156245E-1,-1.1882972E0,2.3578581E-1,7.6915383E-1,-7.26333E-1,-1.2531008E-2,-4.5174196E-1,7.2794485E-1,-1.477179E0,-1.0510572E0,-1.7965671E-1,3.249522E-1,2.8686354E-1,8.419329E-1,-8.176366E-1,-3.788191E-1,1.3761036E-1,-5.162745E-1,-4.411151E-1,-1.4110427E0,3.9073357E-1,8.5608447E-1,-7.398879E-2,-1.8624965E-2,-1.0740293E0,-1.1621077E-1,-6.3612424E-2,-2.8866613E-1,3.494412E-1,-1.195824E0,3.0566686E-1,-2.1588303E-1,8.598612E-1,-6.1235344E-1,-2.985768E-1,-8.7145853E-1,-8.1760216E-1,-2.2209777E-1,1.7993474E-1,-5.0386184E-1,-6.636712E-1,-1.5536296E-1,-4.5308277E-1,3.76856E-1,-1.0162419E0,-7.7776864E-2,6.2770486E-1,1.0251955E-1,-1.5149261E-2,9.001841E-1,-1.1954676E0,-9.765266E-1,4.7048396E-1,-4.298061E-1,-9.939259E-3,5.8096326E-3,-5.266685E-2,-1.366338E-2,1.9432662E-2,-9.512774E-3,-3.8872026E-2,-6.782728E-2,-2.1344777E-3,1.6367935E-2,3.2525595E-2,-2.0722877E-2,4.458741E-2,1.1885318E-2,-4.53644E-3,-3.810351E-2,-4.3232194E-3,-2.7789388E-2,-4.260739E-2,-7.398062E-2,-2.2918193E-2,-6.484409E-2,1.6941085E-2,-3.0282939E-2,7.367303E-3,7.195938E-2,-2.9446915E-2,-8.801064E-3,-3.2314826E-3,-3.6893953E-2,3.7060365E-2,-1.2421859E-2,-2.7321784E-2,-1.7068623E-2,3.561573E-2,4.7580367E-3,-7.620723E-2,-4.1390824E-4,4.123428E-2,1.731955E-2,-4.5453575E-2,1.8944612E-2,2.1428129E-2,4.7956016E-2,-6.0291894E-2,-1.4906275E-2,-4.9500868E-2,-0E0,-4.4804834E-2,3.7029285E-2,-8.991481E-3,-5.6283213E-2],"categories":[],"categories_nodes":[],"categories_segments":[],"categories_sizes":[],"default_left":[0,0,0,0,0,0,0,0,0,0,0,0,0,0,0,0,0,0,0,0,0,0,0,0,0,0,0,0,0,0,0,0,0,0,0,0,0,0,0,0,0,0,0,0,0,0,0,0,0,0,0,0,0,0,0,0,0,0,0,0,0,0,0,0,0,0,0,0,0,0,0,0,0,0,0,0,0,0,0,0,0,0,0,0,0,0,0,0,0,0,0,0,0,0,0,0,0,0,0,0,0,0,0,0,0,0,0,0,0,0,0],"id":1,"left_children":[1,3,5,7,9,11,13,15,17,19,21,23,25,27,29,31,33,35,37,39,41,43,45,47,49,51,53,-1,-1,55,57,59,61,63,65,67,69,71,73,75,77,79,81,83,85,87,89,91,93,95,-1,97,99,-1,101,103,105,107,109,-1,-1,-1,-1,-1,-1,-1,-1,-1,-1,-1,-1,-1,-1,-1,-1,-1,-1,-1,-1,-1,-1,-1,-1,-1,-1,-1,-1,-1,-1,-1,-1,-1,-1,-1,-1,-1,-1,-1,-1,-1,-1,-1,-1,-1,-1,-1,-1,-1,-1,-1,-1],"loss_changes":[6.605853E3,3.1469146E3,1.2873789E3,1.345852E3,1.1957172E3,1.8640155E2,1.623374E2,4.195105E2,2.8498828E2,9.079309E1,9.6635925E2,4.37265E1,5.5144806E0,3.0805664E0,6.0112305E1,2.5261887E1,3.4752838E2,1.0167175E1,1.8469727E2,6.3199463E1,4.0994377E1,2.6728787E2,1.5588562E2,4.248938E1,8.6061096E-1,2.6029239E0,5.3991776E0,0E0,0E0,3.1092285E1,1.2825362E1,2.3632896E1,1.1721283E1,1.9427563E2,8.677521E0,7.823372E0,6.9357204E0,1.3809229E2,6.602791E0,1.1644869E1,2.2713013E1,2.6337334E1,9.572481E1,3.7858484E2,1.6815369E1,9.2450134E1,7.125183E1,4.4154663E1,5.78129E0,7.8944225E0,0E0,7.959871E-1,5.740203E0,0E0,2.113739E0,1.0811157E1,2.0046875E1,9.607508E0,7.55717E0,0E0,0E0,0E0,0E0,0E0,0E0,0E0,0E0,0E0,0E0,0E0,0E0,0E0,0E0,0E0,0E0,0E0,0E0,0E0,0E0,0E0,0E0,0E0,0E0,0E0,0E0,0E0,0E0,0E0,0E0,0E0,0E0,0E0,0E0,0E0,0E0,0E0,0E0,0E0,0E0,0E0,0E0,0E0,0E0,0E0,0E0,0E0,0E0,0E0,0E0,0E0,0E0],"parents":[2147483647,0,0,1,1,2,2,3,3,4,4,5,5,6,6,7,7,8,8,9,9,10,10,11,11,12,12,13,13,14,14,15,15,16,16,17,17,18,18,19,19,20,20,21,21,22,22,23,23,24,24,25,25,26,26,29,29,30,30,31,31,32,32,33,33,34,34,35,35,36,36,37,37,38,38,39,39,40,40,41,41,42,42,43,43,44,44,45,45,46,46,47,47,48,48,49,49,51,51,52,52,54,54,55,55,56,56,57,57,58,58],"right_children":[2,4,6,8,10,12,14,16,18,20,22,24,26,28,30,32,34,36,38,40,42,44,46,48,50,52,54,-1,-1,56,58,60,62,64,66,68,70,72,74,76,78,80,82,84,86,88,90,92,94,96,-1,98,100,-1,102,104,106,108,110,-1,-1,-1,-1,-1,-1,-1,-1,-1,-1,-1,-1,-1,-1,-1,-1,-1,-1,-1,-1,-1,-1,-1,-1,-1,-1,-1,-1,-1,-1,-1,-1,-1,-1,-1,-1,-1,-1,-1,-1,-1,-1,-1,-1,-1,-1,-1,-1,-1,-1,-1,-1],"split_conditions":[8.86645E-1,5.2476443E-2,4.1876435E-1,3E1,1E0,3E1,1E0,1E0,1E0,-3.9958887E-2,1E0,1E0,3E0,1.39E2,3E1,-4.7659017E-2,1E0,1E0,1E0,4.1876435E-1,5.4E1,1E0,3E1,1E0,5.5E1,5.2E1,1.1E1,-7.398879E-2,-1.8624965E-2,5.9E1,1E0,3E0,7E0,1E0,5E1,1.1E1,2E0,1E0,1E0,-1.653792E-1,1E0,2.8E1,6.2E1,1E0,3E1,4.1876435E-1,4.1876435E-1,5.9E1,5.1E1,5.3E1,-7.7776864E-2,1E0,1E0,-1.5149261E-2,1E0,5E0,1E0,3.1E1,1E0,-9.939259E-3,5.8096326E-3,-5.266685E-2,-1.366338E-2,1.9432662E-2,-9.512774E-3,-3.8872026E-2,-6.782728E-2,-2.1344777E-3,1.6367935E-2,3.2525595E-2,-2.0722877E-2,4.458741E-2,1.1885318E-2,-4.53644E-3,-3.810351E-2,-4.3232194E-3,-2.7789388E-2,-4.260739E-2,-7.398062E-2,-2.2918193E-2,-6.484409E-2,1.6941085E-2,-3.0282939E-2,7.367303E-3,7.195938E-2,-2.9446915E-2,-8.801064E-3,-3.2314826E-3,-3.6893953E-2,3.7060365E-2,-1.2421859E-2,-2.7321784E-2,-1.7068623E-2,3.561573E-2,4.7580367E-3,-7.620723E-2,-4.1390824E-4,4.123428E-2,1.731955E-2,-4.5453575E-2,1.8944612E-2,2.1428129E-2,4.7956016E-2,-6.0291894E-2,-1.4906275E-2,-4.9500868E-2,-0E0,-4.4804834E-2,3.7029285E-2,-8.991481E-3,-5.6283213E-2],"split_indices":[5,4,4,6,1,6,1,1,1,5,9,8,19,18,6,5,8,11,8,4,18,12,6,15,18,18,18,0,0,18,0,19,18,12,18,18,19,11,0,5,11,18,18,14,6,4,4,18,18,18,0,0,1,0,1,19,15,18,9,0,0,0,0,0,0,0,0,0,0,0,0,0,0,0,0,0,0,0,0,0,0,0,0,0,0,0,0,0,0,0,0,0,0,0,0,0,0,0,0,0,0,0,0,0,0,0,0,0,0,0,0],"split_type":[0,0,0,0,0,0,0,0,0,0,0,0,0,0,0,0,0,0,0,0,0,0,0,0,0,0,0,0,0,0,0,0,0,0,0,0,0,0,0,0,0,0,0,0,0,0,0,0,0,0,0,0,0,0,0,0,0,0,0,0,0,0,0,0,0,0,0,0,0,0,0,0,0,0,0,0,0,0,0,0,0,0,0,0,0,0,0,0,0,0,0,0,0,0,0,0,0,0,0,0,0,0,0,0,0,0,0,0,0,0,0],"sum_hessian":[4.3742668E4,3.5098707E4,8.643963E3,1.9450127E4,1.564858E4,4.5047544E3,4.1392085E3,1.1321838E4,8.1282886E3,2.8740242E3,1.2774556E4,4.3675073E3,1.3724698E2,1.3297246E3,2.809484E3,2.000236E3,9.321603E3,1.0665847E3,7.061704E3,2.2747341E3,5.9928986E2,9.841741E3,2.9328145E3,4.321202E3,4.630503E1,3.9122417E1,9.812457E1,1.3261772E3,3.5473852E0,2.741852E3,6.763185E1,9.7006696E2,1.030169E3,9.174698E3,1.4690387E2,1.0287009E3,3.7883762E1,6.976179E3,8.552444E1,2.1449965E2,2.0602346E3,1.5643987E2,4.4285E2,9.233396E3,6.083448E2,2.0815793E3,8.512351E2,4.2594507E3,6.175137E1,1.4744358E1,3.1560673E1,2.0632982E1,1.8489435E1,3.2982643E0,9.48263E1,1.2155791E3,1.526273E3,2.3272661E1,4.435919E1,5.540199E2,4.160471E2,1.8876694E1,1.01129224E3,8.553689E3,6.210094E2,4.256356E1,1.0434031E2,5.9974335E1,9.6872656E2,6.545551E0,3.1338211E1,6.6355E3,3.4067953E2,1.9580032E1,6.5944405E1,1.1850109E2,9.599855E1,1.9993158E3,6.091884E1,9.065528E1,6.5784584E1,1.7978638E2,2.6306363E2,9.001636E3,2.3176035E2,4.821284E2,1.2621641E2,2.2979352E2,1.8517859E3,7.930112E1,7.71934E2,2.317773E3,1.941678E3,2.7326166E1,3.4425205E1,9.39766E0,5.346698E0,1.07903595E1,9.842622E0,3.3986018E0,1.5090834E1,1.164097E1,8.318533E1,1.2012415E3,1.4337634E1,1.505386E3,2.0886885E1,3.3971107E0,1.9875551E1,3.3666977E1,1.0692217E1],"tree_param":{"num_deleted":"0","num_feature":"20","num_nodes":"111","size_leaf_vector":"1"}},{"base_weights":[-4.5619723E-3,1.8046239E-1,-7.5875795E-1,4.3665162E-1,-1.3741429E-1,-4.161248E-1,-1.1331215E0,2.2478412E-1,7.3000544E-1,-6.840247E-1,-1.6119573E-2,-4.5059666E-1,7.126972E-1,-1.4120891E0,-1.0030636E0,-1.4309023E-1,3.0378953E-1,2.701671E-1,7.982979E-1,-7.651548E-1,-3.76463E-1,1.21699296E-1,-4.7337914E-1,-6.090576E-1,-3.7993872E-1,7.501227E-1,-2.5026319E-3,-1.4252366E0,-6.808951E-1,-1.0268012E0,-4.425931E-2,-1.1067892E0,-1.20194726E-1,3.4211266E-1,-2.0409428E-1,3.5670692E-1,3.1267527E-2,8.3086205E-1,1.7908943E-1,-7.4540496E-1,-1.3855283E0,-7.674256E-1,-1.9306932E-1,1.3284692E-2,5.159106E-1,-6.269039E-1,-1.0213286E-1,-6.285594E-1,-1.8665513E-1,-5.050423E-1,-2.9665494E-1,5.6702054E-1,8.2399505E-1,3.9983723E-2,-4.331597E-2,-1.342552E0,-1.4516063E0,-4.1551018E-4,-8.1051636E-1,-1.0409231E0,-1.8240426E-1,1.7451654E-1,-8.0814075E-1,-5.996963E-2,-1.1124751E-2,-4.2861947E-4,-1.1220609E-2,1.9903302E-2,5.138893E-4,1.6447777E-3,-1.9258166E-2,1.7391345E-2,7.27572E-2,4.373145E-3,-2.1182446E-2,2.4507755E-2,4.2728305E-2,1.6939709E-2,-4.448348E-3,-1.985403E-2,-3.8954385E-2,-8.4020145E-2,-5.9869505E-2,-2.5620675E-2,-5.1036637E-2,3.1663533E-2,-2.6074845E-2,2.3128993E-3,-2.7903134E-2,2.972853E-2,-3.0886767E-2,-1.915755E-3,-3.5079733E-2,3.5676513E-2,-9.562721E-3,-2.5074644E-2,-3.3852484E-2,-1.3754681E-2,3.68089E-2,-3.553547E-2,-2.0291518E-2,-1.1900856E-2,-2.269114E-2,3.1116901E-2,9.33265E-3,9.9183135E-3,4.2301398E-2,-6.790968E-2,-1.7127816E-2,-7.9240374E-2,-6.886438E-2,-4.732124E-2,-1.4643802E-2,-5.6408048E-2,-4.848119E-2,1.0007972E-2,-5.9683748E-2,-5.201965E-3,2.5854422E-2,-5.9339773E-2,-2.4162449E-2],"categories":[],"categories_nodes":[],"categories_segments":[],"categories_sizes":[],"default_left":[0,0,0,0,0,0,0,0,0,0,0,0,0,0,0,0,0,0,0,0,0,0,0,0,0,0,0,0,0,0,0,0,0,0,0,0,0,0,0,0,0,0,0,0,0,0,0,0,0,0,0,0,0,0,0,0,0,0,0,0,0,0,0,0,0,0,0,0,0,0,0,0,0,0,0,0,0,0,0,0,0,0,0,0,0,0,0,0,0,0,0,0,0,0,0,0,0,0,0,0,0,0,0,0,0,0,0,0,0,0,0,0,0,0,0,0,0,0,0,0,0],"id":2,"left_children":[1,3,5,7,9,11,13,15,17,19,21,23,25,27,29,31,33,35,37,39,41,43,45,47,49,51,53,55,57,59,61,63,65,67,69,71,73,75,77,79,81,83,85,87,89,91,93,95,97,99,101,103,105,-1,-1,107,109,-1,111,113,115,117,119,-1,-1,-1,-1,-1,-1,-1,-1,-1,-1,-1,-1,-1,-1,-1,-1,-1,-1,-1,-1,-1,-1,-1,-1,-1,-1,-1,-1,-1,-1,-1,-1,-1,-1,-1,-1,-1,-1,-1,-1,-1,-1,-1,-1,-1,-1,-1,-1,-1,-1,-1,-1,-1,-1,-1,-1,-1,-1],"loss_changes":[6.089257E3,2.8536187E3,1.1020215E3,1.2056782E3,1.0367258E3,1.7501648E2,1.4736084E2,3.2754987E2,2.5517969E2,7.045642E1,8.066822E2,4.8461365E1,3.6461563E0,1.1347656E1,6.3687744E1,4.3708515E1,1.8063544E2,2.1736237E1,1.4257861E2,2.627002E1,4.2413956E1,4.202933E2,1.688335E2,1.0854309E1,3.120401E1,1.1096344E0,5.8931E0,5.6103516E-1,2.0969496E0,3.232544E1,1.1721074E1,3.3592148E0,2.2630342E1,1.6011725E2,2.799584E1,6.8550644E0,7.2028546E0,5.3791016E1,1.52667055E1,2.5135986E1,1.4708405E0,1.1562088E1,1.1063836E2,1.4532399E2,1.8952313E2,9.208441E1,6.3233078E1,7.4411316E0,5.1237364E0,2.4164032E1,1.6541595E1,6.459341E-1,9.379654E-1,0E0,0E0,4.425476E0,6.991333E0,0E0,1.0680733E0,1.5438477E1,1.8270174E1,5.2758565E0,1.1813202E0,0E0,0E0,0E0,0E0,0E0,0E0,0E0,0E0,0E0,0E0,0E0,0E0,0E0,0E0,0E0,0E0,0E0,0E0,0E0,0E0,0E0,0E0,0E0,0E0,0E0,0E0,0E0,0E0,0E0,0E0,0E0,0E0,0E0,0E0,0E0,0E0,0E0,0E0,0E0,0E0,0E0,0E0,0E0,0E0,0E0,0E0,0E0,0E0,0E0,0E0,0E0,0E0,0E0,0E0,0E0,0E0,0E0,0E0],"parents":[2147483647,0,0,1,1,2,2,3,3,4,4,5,5,6,6,7,7,8,8,9,9,10,10,11,11,12,12,13,13,14,14,15,15,16,16,17,17,18,18,19,19,20,20,21,21,22,22,23,23,24,24,25,25,26,26,27,27,28,28,29,29,30,30,31,31,32,32,33,33,34,34,35,35,36,36,37,37,38,38,39,39,40,40,41,41,42,42,43,43,44,44,45,45,46,46,47,47,48,48,49,49,50,50,51,51,52,52,55,55,56,56,58,58,59,59,60,60,61,61,62,62],"right_children":[2,4,6,8,10,12,14,16,18,20,22,24,26,28,30,32,34,36,38,40,42,44,46,48,50,52,54,56,58,60,62,64,66,68,70,72,74,76,78,80,82,84,86,88,90,92,94,96,98,100,102,104,106,-1,-1,108,110,-1,112,114,116,118,120,-1,-1,-1,-1,-1,-1,-1,-1,-1,-1,-1,-1,-1,-1,-1,-1,-1,-1,-1,-1,-1,-1,-1,-1,-1,-1,-1,-1,-1,-1,-1,-1,-1,-1,-1,-1,-1,-1,-1,-1,-1,-1,-1,-1,-1,-1,-1,-1,-1,-1,-1,-1,-1,-1,-1,-1,-1,-1],"split_conditions":[8.86645E-1,5.2476443E-2,4.1876435E-1,3E1,1E0,3E1,1E0,1E0,1E0,-3.9958887E-2,1E0,1E0,5.2476443E-2,1E0,3E1,8E0,1E0,-4.7659017E-2,1E0,1E0,5.8E1,1E0,3E1,1.05E2,5.7E1,3E0,1E0,4.8E1,2E1,1E0,1E0,1E0,-4.7659017E-2,1E0,-4.7659017E-2,6E1,-3.9958887E-2,1E0,1E0,4.1876435E-1,5E1,3E1,6.1E1,1E0,1E0,4.1876435E-1,4.1876435E-1,4.8E1,4E0,3E0,1E0,1E0,1.1E1,3.9983723E-2,-4.331597E-2,2.9E1,5.9E1,-4.1551018E-4,1.07E2,5.9E1,1E0,6.5E1,1E0,-5.996963E-2,-1.1124751E-2,-4.2861947E-4,-1.1220609E-2,1.9903302E-2,5.138893E-4,1.6447777E-3,-1.9258166E-2,1.7391345E-2,7.27572E-2,4.373145E-3,-2.1182446E-2,2.4507755E-2,4.2728305E-2,1.6939709E-2,-4.448348E-3,-1.985403E-2,-3.8954385E-2,-8.4020145E-2,-5.9869505E-2,-2.5620675E-2,-5.1036637E-2,3.1663533E-2,-2.6074845E-2,2.3128993E-3,-2.7903134E-2,2.972853E-2,-3.0886767E-2,-1.915755E-3,-3.5079733E-2,3.5676513E-2,-9.562721E-3,-2.5074644E-2,-3.3852484E-2,-1.3754681E-2,3.68089E-2,-3.553547E-2,-2.0291518E-2,-1.1900856E-2,-2.269114E-2,3.1116901E-2,9.33265E-3,9.9183135E-3,4.2301398E-2,-6.790968E-2,-1.7127816E-2,-7.9240374E-2,-6.886438E-2,-4.732124E-2,-1.4643802E-2,-5.6408048E-2,-4.848119E-2,1.0007972E-2,-5.9683748E-2,-5.201965E-3,2.5854422E-2,-5.9339773E-2,-2.4162449E-2],"split_indices":[5,4,4,6,1,6,1,1,1,5,9,1,4,15,6,18,12,5,11,11,18,16,6,18,18,19,0,18,18,15,9,9,5,9,5,6,5,17,16,4,18,18,18,12,11,4,4,18,19,19,16,16,18,0,0,18,18,0,18,18,9,18,15,0,0,0,0,0,0,0,0,0,0,0,0,0,0,0,0,0,0,0,0,0,0,0,0,0,0,0,0,0,0,0,0,0,0,0,0,0,0,0,0,0,0,0,0,0,0,0,0,0,0,0,0,0,0,0,0,0,0],"split_type":[0,0,0,0,0,0,0,0,0,0,0,0,0,0,0,0,0,0,0,0,0,0,0,0,0,0,0,0,0,0,0,0,0,0,0,0,0,0,0,0,0,0,0,0,0,0,0,0,0,0,0,0,0,0,0,0,0,0,0,0,0,0,0,0,0,0,0,0,0,0,0,0,0,0,0,0,0,0,0,0,0,0,0,0,0,0,0,0,0,0,0,0,0,0,0,0,0,0,0,0,0,0,0,0,0,0,0,0,0,0,0,0,0,0,0,0,0,0,0,0,0],"sum_hessian":[4.363423E4,3.5038887E4,8.595345E3,1.9402E4,1.5636888E4,4.489106E3,4.1062383E3,1.1266882E4,8.1351177E3,2.8387402E3,1.2798147E4,4.3567495E3,1.3235655E2,1.3022826E3,2.8039558E3,1.9915433E3,9.275339E3,1.0527802E3,7.0823374E3,2.244787E3,5.9395306E2,9.83452E3,2.9636272E3,1.3407906E3,3.0159587E3,1.25861374E2,6.4951754E0,1.2782134E3,2.4069221E1,2.7360427E3,6.791311E1,4.5016987E1,1.9465264E3,8.625046E3,6.5029236E2,7.7215894E2,2.806212E2,6.728009E3,3.5432883E2,2.1778184E3,6.696874E1,1.8846004E2,4.0549304E2,7.7142593E3,2.1202607E3,2.0959233E3,8.677039E2,1.280927E3,5.9863697E1,1.2028497E3,1.813109E3,3.9064445E1,8.679692E1,3.346221E0,3.1489544E0,3.2254636E2,9.55667E2,4.185724E0,1.9883497E1,2.6906921E3,4.535057E1,5.329114E1,1.4621968E1,4.0324768E1,4.692222E0,9.4085895E2,1.00566736E3,7.3801226E3,1.2449238E3,2.817689E2,3.6852347E2,7.673631E2,4.795839E0,2.5068222E2,2.9938963E1,4.3932513E2,6.2886836E3,2.2210846E2,1.3222035E2,1.9341402E2,1.9844043E3,2.2788454E1,4.4180286E1,9.561707E1,9.2842964E1,1.1497573E2,2.905173E2,7.294384E3,4.1987552E2,1.9832157E3,1.3704506E2,2.3633926E2,1.859584E3,8.466844E1,7.830355E2,3.575051E2,9.2342194E2,5.536786E1,4.4958396E0,3.8909073E2,8.1375903E2,1.322753E3,4.90356E2,3.331966E1,5.744786E0,3.4474583E0,8.3349464E1,3.1712772E2,5.418632E0,3.3449063E2,6.211764E2,1.4939537E1,4.9439607E0,1.2027946E3,1.4878976E3,3.341345E1,1.1937121E1,2.9614809E1,2.367633E1,5.3850794E0,9.236889E0],"tree_param":{"num_deleted":"0","num_feature":"20","num_nodes":"121","size_leaf_vector":"1"}},{"base_weights":[-3.275003E-3,1.718681E-1,-7.1879995E-1,4.120635E-1,-1.2800522E-1,-3.830496E-1,-1.0890659E0,2.0559491E-1,6.995616E-1,2.349031E-1,-4.463512E-1,-4.166328E-1,6.7737424E-1,-1.3488964E0,-9.6718E-1,4.7885638E-1,-6.258794E-2,2.9161644E-1,7.6172405E-1,-2.1540271E-1,1.6855284E0,-1.064039E0,-3.6016226E-1,-5.1770747E-1,-3.2258317E-1,7.225035E-1,-1.3484529E-1,-1.3638542E0,-5.01831E-1,-9.927435E-1,3.423774E-2,2.304655E-1,1.48801E0,1.2041919E-1,-2.5250217E-1,3.0780122E-1,-2.1653587E-1,7.789776E-1,-6.5678066E-1,-6.836181E-1,-2.5287108E-2,1.6980402E0,-5.073968E-1,-2.7433625E-1,-1.1365868E0,-5.0284666E-1,-9.225768E-2,-5.346522E-1,5.529335E-1,-3.1215146E-1,-6.546795E-2,1.6263442E-1,8.144694E-1,2.3653312E-2,-4.1801717E-2,-1.369382E0,-7.8672886E-1,-1.2820385E-1,-7.722317E-1,-1.0120791E0,-5.5039155E-1,8.230077E-1,-5.836317E-1,-7.7108056E-3,1.8692756E-2,7.567713E-2,-8.4711835E-2,7.119193E-3,-5.0099332E-2,-1.1334016E-2,-6.330063E-2,1.855292E-2,8.782476E-3,2.033131E-2,-2.2324963E-2,4.021032E-2,1.5381046E-2,-5.9491275E-3,-4.0856544E-2,-3.8139943E-2,-1.579728E-2,-7.104035E-3,1.04205115E-2,5.5000033E-2,8.724009E-2,-7.228059E-2,4.9338806E-3,-1.982887E-2,1.4343858E-2,-6.000937E-2,-4.9055096E-2,-6.041947E-3,-2.7950218E-2,-5.2336687E-3,5.631717E-2,-2.8047457E-2,-1.2426653E-2,3.745396E-2,-2.0046113E-2,-2.3580067E-2,-1.2463213E-2,3.2094516E-2,-2.0944176E-2,3.8183033E-2,5.5921163E-2,-6.9117606E-2,-5.6937482E-2,-2.0238703E-2,-7.1357E-2,-1.9534342E-2,1.9991007E-2,-5.3882416E-2,-2.3563176E-3,-5.242463E-2,-3.985175E-2,-3.0835977E-2,1.705884E-2,-1.6936203E-2,4.9395923E-2,-4.405892E-2,-5.0198445E-3],"categories":[],"categories_nodes":[],"categories_segments":[],"categories_sizes":[],"default_left":[0,0,0,0,0,0,0,0,0,0,0,0,0,0,0,0,0,0,0,0,0,0,0,0,0,0,0,0,0,0,0,0,0,0,0,0,0,0,0,0,0,0,0,0,0,0,0,0,0,0,0,0,0,0,0,0,0,0,0,0,0,0,0,0,0,0,0,0,0,0,0,0,0,0,0,0,0,0,0,0,0,0,0,0,0,0,0,0,0,0,0,0,0,0,0,0,0,0,0,0,0,0,0,0,0,0,0,0,0,0,0,0,0,0,0,0,0,0,0,0,0],"id":3,"left_children":[1,3,5,7,9,11,13,15,17,19,21,23,25,27,29,31,33,35,37,39,41,43,45,47,49,51,53,55,57,59,61,63,65,67,69,71,73,75,77,79,81,83,85,87,89,91,93,95,97,99,-1,101,103,-1,-1,105,107,109,111,113,115,117,119,-1,-1,-1,-1,-1,-1,-1,-1,-1,-1,-1,-1,-1,-1,-1,-1,-1,-1,-1,-1,-1,-1,-1,-1,-1,-1,-1,-1,-1,-1,-1,-1,-1,-1,-1,-1,-1,-1,-1,-1,-1,-1,-1,-1,-1,-1,-1,-1,-1,-1,-1,-1,-1,-1,-1,-1,-1,-1],"loss_changes":[5.4481763E3,2.515667E3,1.0622119E3,1.1508943E3,1.794714E3,1.5998212E2,1.27194824E2,8.273351E2,2.0520874E2,4.742403E3,4.4003162E2,4.108258E1,5.213497E0,1.5538818E1,7.105859E1,1.4010979E3,1.9807678E2,8.905182E0,1.7263916E2,4.930933E2,4.8166504E1,5.7562622E1,2.7755188E2,3.827588E1,2.2646866E1,6.513962E0,3.8370285E0,2.7648926E0,2.2529716E0,2.2395752E1,3.4539574E1,2.4765662E2,9.226221E1,7.160325E1,7.275697E1,8.582764E0,4.99117E0,8.2271484E1,7.1377335E0,4.622534E1,1.07607185E2,4.562549E1,6.2372365E0,6.0682364E0,7.7717285E0,1.01527954E2,3.822841E1,1.5291382E1,6.512759E0,2.2204788E1,0E0,5.832468E0,6.889038E-1,0E0,0E0,1.9379883E0,2.807869E0,1.7495667E0,2.8637562E0,1.9239258E1,7.0718575E0,6.369604E0,5.517994E0,0E0,0E0,0E0,0E0,0E0,0E0,0E0,0E0,0E0,0E0,0E0,0E0,0E0,0E0,0E0,0E0,0E0,0E0,0E0,0E0,0E0,0E0,0E0,0E0,0E0,0E0,0E0,0E0,0E0,0E0,0E0,0E0,0E0,0E0,0E0,0E0,0E0,0E0,0E0,0E0,0E0,0E0,0E0,0E0,0E0,0E0,0E0,0E0,0E0,0E0,0E0,0E0,0E0,0E0,0E0,0E0,0E0,0E0],"parents":[2147483647,0,0,1,1,2,2,3,3,4,4,5,5,6,6,7,7,8,8,9,9,10,10,11,11,12,12,13,13,14,14,15,15,16,16,17,17,18,18,19,19,20,20,21,21,22,22,23,23,24,24,25,25,26,26,27,27,28,28,29,29,30,30,31,31,32,32,33,33,34,34,35,35,36,36,37,37,38,38,39,39,40,40,41,41,42,42,43,43,44,44,45,45,46,46,47,47,48,48,49,49,51,51,52,52,55,55,56,56,57,57,58,58,59,59,60,60,61,61,62,62],"right_children":[2,4,6,8,10,12,14,16,18,20,22,24,26,28,30,32,34,36,38,40,42,44,46,48,50,52,54,56,58,60,62,64,66,68,70,72,74,76,78,80,82,84,86,88,90,92,94,96,98,100,-1,102,104,-1,-1,106,108,110,112,114,116,118,120,-1,-1,-1,-1,-1,-1,-1,-1,-1,-1,-1,-1,-1,-1,-1,-1,-1,-1,-1,-1,-1,-1,-1,-1,-1,-1,-1,-1,-1,-1,-1,-1,-1,-1,-1,-1,-1,-1,-1,-1,-1,-1,-1,-1,-1,-1,-1,-1,-1,-1,-1,-1,-1,-1,-1,-1,-1,-1],"split_conditions":[8.86645E-1,5.2476443E-2,4.1876435E-1,3E1,1E0,3E1,1E0,1E0,1E0,1E0,1E0,5.8E1,5.2476443E-2,1E0,3E1,1E0,-4.7659017E-2,-3.9958887E-2,1E0,1E0,1E0,4.1876435E-1,3E1,1E0,1E0,1E0,1E0,3E1,5E1,1.06E2,1E0,1E0,1E0,1E0,1E0,1E0,3.1E1,1E0,3E0,-3.9958887E-2,3E1,4.1876435E-1,1E0,3E1,3E1,4.1876435E-1,6E1,4E0,5E1,1E0,-6.546795E-2,5.1E1,1.11E2,2.3653312E-2,-4.1801717E-2,1.05E2,7.2E1,4.8E1,1.07E2,4E0,1E0,3.2E1,7.2E1,-7.7108056E-3,1.8692756E-2,7.567713E-2,-8.4711835E-2,7.119193E-3,-5.0099332E-2,-1.1334016E-2,-6.330063E-2,1.855292E-2,8.782476E-3,2.033131E-2,-2.2324963E-2,4.021032E-2,1.5381046E-2,-5.9491275E-3,-4.0856544E-2,-3.8139943E-2,-1.579728E-2,-7.104035E-3,1.04205115E-2,5.5000033E-2,8.724009E-2,-7.228059E-2,4.9338806E-3,-1.982887E-2,1.4343858E-2,-6.000937E-2,-4.9055096E-2,-6.041947E-3,-2.7950218E-2,-5.2336687E-3,5.631717E-2,-2.8047457E-2,-1.2426653E-2,3.745396E-2,-2.0046113E-2,-2.3580067E-2,-1.2463213E-2,3.2094516E-2,-2.0944176E-2,3.8183033E-2,5.5921163E-2,-6.9117606E-2,-5.6937482E-2,-2.0238703E-2,-7.1357E-2,-1.9534342E-2,1.9991007E-2,-5.3882416E-2,-2.3563176E-3,-5.242463E-2,-3.985175E-2,-3.0835977E-2,1.705884E-2,-1.6936203E-2,4.9395923E-2,-4.405892E-2,-5.0198445E-3],"split_indices":[5,4,4,6,3,6,1,3,1,0,1,18,4,15,6,0,5,5,8,1,11,4,6,15,8,1,0,6,18,18,3,1,8,8,8,3,18,11,19,5,6,4,15,6,6,4,6,19,18,1,0,18,18,0,0,18,18,18,18,19,15,18,18,0,0,0,0,0,0,0,0,0,0,0,0,0,0,0,0,0,0,0,0,0,0,0,0,0,0,0,0,0,0,0,0,0,0,0,0,0,0,0,0,0,0,0,0,0,0,0,0,0,0,0,0,0,0,0,0,0,0],"split_type":[0,0,0,0,0,0,0,0,0,0,0,0,0,0,0,0,0,0,0,0,0,0,0,0,0,0,0,0,0,0,0,0,0,0,0,0,0,0,0,0,0,0,0,0,0,0,0,0,0,0,0,0,0,0,0,0,0,0,0,0,0,0,0,0,0,0,0,0,0,0,0,0,0,0,0,0,0,0,0,0,0,0,0,0,0,0,0,0,0,0,0,0,0,0,0,0,0,0,0,0,0,0,0,0,0,0,0,0,0,0,0,0,0,0,0,0,0,0,0,0,0],"sum_hessian":[4.347195E4,3.492402E4,8.547931E3,1.939155E4,1.5532469E4,4.484119E3,4.0638115E3,1.1287455E4,8.104095E3,7.258203E3,8.274265E3,4.347148E3,1.3697101E2,1.2941401E3,2.7696716E3,5.5905864E3,5.6968687E3,1.0725729E3,7.031522E3,5.539427E3,1.7187766E3,1.0116436E3,7.2626216E3,2.0926353E3,2.254513E3,1.2998239E2,6.9886103E0,1.2709686E3,2.3171452E1,2.700835E3,6.883652E1,4.487396E3,1.1031903E3,2.90111E3,2.7957583E3,1.0400385E3,3.253437E1,6.9475396E3,8.39826E1,1.5987972E3,3.9406294E3,1.7092954E3,9.48118E0,8.563563E1,9.26008E2,4.737961E3,2.5246604E3,2.0606165E3,3.2018692E1,2.2323315E3,2.2181473E1,1.8882929E1,1.1109947E2,3.841156E0,3.1474543E0,1.257379E3,1.3589583E1,1.05029335E1,1.2668519E1,2.5862725E3,1.1456247E2,3.0161846E1,3.8674667E1,1.2182736E3,3.2691226E3,1.0949608E3,8.229516E0,2.8463708E3,5.4739197E1,2.7275881E3,6.817022E1,7.016258E2,3.3841266E2,8.445477E0,2.4088894E1,6.5937E3,3.5383936E2,1.9832401E1,6.415019E1,1.3143884E3,2.8440884E2,2.628046E3,1.3125836E3,1.2589313E2,1.5834023E3,3.2421148E0,6.2390656E0,7.070623E1,1.4929397E1,6.5196234E2,2.7404562E2,6.078759E2,4.130085E3,2.5001836E3,2.4476908E1,1.8859688E3,1.7464784E2,2.6822567E1,5.196124E0,6.291185E2,1.6032129E3,1.0389009E1,8.493919E0,9.847917E1,1.26202965E1,1.1852943E3,7.208477E1,9.632662E0,3.956922E0,7.315733E0,3.1872003E0,8.474801E0,4.193718E0,2.2080435E3,3.7822916E2,1.07021095E2,7.5413694E0,3.5429285E0,2.6618917E1,2.3298454E1,1.5376213E1],"tree_param":{"num_deleted":"0","num_feature":"20","num_nodes":"121","size_leaf_vector":"1"}},{"base_weights":[-7.0819934E-4,2.4241234E-1,-3.4629375E-1,3.699607E-2,6.419541E-1,-8.8785964E-1,-1.9894108E-1,2.4650691E-1,-1.6242422E-1,2.3822872E-1,7.020197E-1,-7.1196383E-1,-1.1636682E0,2.2772512E-1,-4.985657E-1,4.194542E-2,1.3394283E0,-1.406915E-1,-1.2440084E0,2.453018E-1,-7.785385E-2,7.1814704E-1,-6.163563E-1,-9.1531336E-1,1.5306289E0,-1.2280575E0,-8.8398474E-1,-2.3096944E-1,1.6348149E0,-6.4354014E-1,-1.2702961E-1,-2.9109186E-1,1.9997238E-1,1.3850689E0,-4.1894417E-2,-1.2017229E0,-1.297048E-1,-2.4835365E-1,-1.3014784E0,2.369347E-1,1.0119486E0,7.4929523E-1,7.079242E-2,1.9161358E-2,-8.0527407E-1,-9.687154E-1,-7.360304E-1,1.592258E0,5.271804E-2,-7.5855845E-1,-1.2411879E0,-7.476911E-1,-1.0686551E0,-8.167705E-2,-8.172556E-1,1.6676353E0,-3.2107598E-1,-7.031813E-1,-3.946401E-1,8.103057E-2,-1.3547704E-1,-8.402191E-3,-1.8432483E-2,1.0681074E-2,-6.3896514E-2,7.0583016E-2,-7.4990734E-2,-6.430683E-2,-1.3037666E-2,-1.9669587E-2,-4.4025886E-3,1.8381152E-2,-4.9874324E-2,-5.1611733E-2,-6.935514E-2,1.286181E-2,-2.1157754E-3,6.488875E-2,1.8378979E-2,3.769389E-2,-7.422791E-2,-3.510232E-2,3.8269464E-2,-4.1256767E-2,1.7232552E-2,-4.4874635E-2,-1.962982E-2,-4.2828303E-2,-5.3559333E-2,-3.8244426E-2,1.8046668E-3,5.989172E-2,8.251443E-2,-4.741221E-2,-1.19519085E-2,-6.429154E-2,-5.7490993E-2,-3.0992735E-2,-4.8366513E-2,-5.927065E-2,-3.1999372E-2,-1.0978882E-2,1.2882935E-2,-4.9701314E-2,-9.491159E-3,8.379081E-2,-3.993334E-3,-3.1417947E-2,1.5679017E-2,8.744972E-2,-3.5488617E-2,-1.6127152E-2,-2.533055E-2,-6.4481343E-3,-8.702659E-2],"categories":[],"categories_nodes":[],"categories_segments":[],"categories_sizes":[],"default_left":[0,0,0,0,0,0,0,0,0,0,0,0,0,0,0,0,0,0,0,0,0,0,0,0,0,0,0,0,0,0,0,0,0,0,0,0,0,0,0,0,0,0,0,0,0,0,0,0,0,0,0,0,0,0,0,0,0,0,0,0,0,0,0,0,0,0,0,0,0,0,0,0,0,0,0,0,0,0,0,0,0,0,0,0,0,0,0,0,0,0,0,0,0,0,0,0,0,0,0,0,0,0,0,0,0,0,0,0,0,0,0,0,0,0,0],"id":4,"left_children":[1,3,5,7,9,11,13,15,17,19,21,23,25,27,29,31,33,35,37,39,-1,41,43,45,47,49,51,53,55,57,59,61,63,65,-1,67,69,71,73,75,77,79,81,83,85,87,89,91,-1,93,95,97,99,101,103,105,107,109,111,-1,113,-1,-1,-1,-1,-1,-1,-1,-1,-1,-1,-1,-1,-1,-1,-1,-1,-1,-1,-1,-1,-1,-1,-1,-1,-1,-1,-1,-1,-1,-1,-1,-1,-1,-1,-1,-1,-1,-1,-1,-1,-1,-1,-1,-1,-1,-1,-1,-1,-1,-1,-1,-1,-1,-1],"loss_changes":[3.6578953E3,2.097418E3,1.434508E3,7.0531177E2,2.1017358E2,1.855293E2,1.807203E3,1.8403286E3,2.0298033E2,1.4543774E1,1.6104663E2,1.0733158E3,2.563623E1,3.764614E3,4.4714404E2,3.6506287E2,1.3018506E2,9.855888E1,9.257233E0,6.8330765E0,0E0,1.5033545E2,1.1108643E1,1.9757324E1,3.8025208E0,6.334961E0,6.1608124E0,3.8488196E2,9.271948E1,8.828125E1,3.4503326E1,2.1186249E1,9.506589E1,9.965674E1,0E0,6.3957443E0,9.210991E1,5.3281794E0,2.0269775E0,6.3331337E0,1.5075016E0,7.392847E1,1.85115E2,6.248617E0,2.2154808E0,1.7938232E1,1.1227722E1,1.6566162E0,0E0,3.1800346E0,3.08313E0,3.92762E0,4.9569244E0,1.6418262E2,9.868994E1,2.045752E1,4.9973536E0,7.89895E1,9.095535E0,0E0,2.3868137E1,0E0,0E0,0E0,0E0,0E0,0E0,0E0,0E0,0E0,0E0,0E0,0E0,0E0,0E0,0E0,0E0,0E0,0E0,0E0,0E0,0E0,0E0,0E0,0E0,0E0,0E0,0E0,0E0,0E0,0E0,0E0,0E0,0E0,0E0,0E0,0E0,0E0,0E0,0E0,0E0,0E0,0E0,0E0,0E0,0E0,0E0,0E0,0E0,0E0,0E0,0E0,0E0,0E0,0E0],"parents":[2147483647,0,0,1,1,2,2,3,3,4,4,5,5,6,6,7,7,8,8,9,9,10,10,11,11,12,12,13,13,14,14,15,15,16,16,17,17,18,18,19,19,21,21,22,22,23,23,24,24,25,25,26,26,27,27,28,28,29,29,30,30,31,31,32,32,33,33,35,35,36,36,37,37,38,38,39,39,40,40,41,41,42,42,43,43,44,44,45,45,46,46,47,47,49,49,50,50,51,51,52,52,53,53,54,54,55,55,56,56,57,57,58,58,60,60],"right_children":[2,4,6,8,10,12,14,16,18,20,22,24,26,28,30,32,34,36,38,40,-1,42,44,46,48,50,52,54,56,58,60,62,64,66,-1,68,70,72,74,76,78,80,82,84,86,88,90,92,-1,94,96,98,100,102,104,106,108,110,112,-1,114,-1,-1,-1,-1,-1,-1,-1,-1,-1,-1,-1,-1,-1,-1,-1,-1,-1,-1,-1,-1,-1,-1,-1,-1,-1,-1,-1,-1,-1,-1,-1,-1,-1,-1,-1,-1,-1,-1,-1,-1,-1,-1,-1,-1,-1,-1,-1,-1,-1,-1,-1,-1,-1,-1],"split_conditions":[4.1876435E-1,3E1,1E0,1E0,1E0,1E0,1E0,1E0,1E0,1E0,1E0,1E0,3E1,1E0,3E1,1E0,1E0,1E0,2.1E1,9E1,-7.785385E-2,5.2476443E-2,1E0,8.4E1,3E1,1.2E1,6.4E1,1E0,1E0,4E0,1E6,5.2E1,1E0,1E0,-4.1894417E-2,1.06E2,1E0,1E0,1E0,1.25E2,2.7E1,1E0,1E0,3E0,4E0,5.1E1,1.41E2,2E0,5.271804E-2,1E1,6.3E1,3E0,1.11E2,3E1,3E1,1E0,3E1,1E6,6.1E1,8.103057E-2,1E0,-8.402191E-3,-1.8432483E-2,1.0681074E-2,-6.3896514E-2,7.0583016E-2,-7.4990734E-2,-6.430683E-2,-1.3037666E-2,-1.9669587E-2,-4.4025886E-3,1.8381152E-2,-4.9874324E-2,-5.1611733E-2,-6.935514E-2,1.286181E-2,-2.1157754E-3,6.488875E-2,1.8378979E-2,3.769389E-2,-7.422791E-2,-3.510232E-2,3.8269464E-2,-4.1256767E-2,1.7232552E-2,-4.4874635E-2,-1.962982E-2,-4.2828303E-2,-5.3559333E-2,-3.8244426E-2,1.8046668E-3,5.989172E-2,8.251443E-2,-4.741221E-2,-1.19519085E-2,-6.429154E-2,-5.7490993E-2,-3.0992735E-2,-4.8366513E-2,-5.927065E-2,-3.1999372E-2,-1.0978882E-2,1.2882935E-2,-4.9701314E-2,-9.491159E-3,8.379081E-2,-3.993334E-3,-3.1417947E-2,1.5679017E-2,8.744972E-2,-3.5488617E-2,-1.6127152E-2,-2.533055E-2,-6.4481343E-3,-8.702659E-2],"split_indices":[4,6,1,3,1,3,3,0,8,8,8,0,6,0,6,1,9,0,18,6,0,4,3,18,6,18,18,9,9,19,13,18,8,8,0,18,1,16,16,18,18,10,15,19,19,18,18,19,0,18,18,19,18,6,6,8,6,13,18,0,10,0,0,0,0,0,0,0,0,0,0,0,0,0,0,0,0,0,0,0,0,0,0,0,0,0,0,0,0,0,0,0,0,0,0,0,0,0,0,0,0,0,0,0,0,0,0,0,0,0,0,0,0,0,0],"split_type":[0,0,0,0,0,0,0,0,0,0,0,0,0,0,0,0,0,0,0,0,0,0,0,0,0,0,0,0,0,0,0,0,0,0,0,0,0,0,0,0,0,0,0,0,0,0,0,0,0,0,0,0,0,0,0,0,0,0,0,0,0,0,0,0,0,0,0,0,0,0,0,0,0,0,0,0,0,0,0,0,0,0,0,0,0,0,0,0,0,0,0,0,0,0,0,0,0,0,0,0,0,0,0,0,0,0,0,0,0,0,0,0,0,0,0],"sum_hessian":[4.3534426E4,2.5555828E4,1.7978598E4,1.6879117E4,8.676712E3,3.844219E3,1.413438E4,8.231438E3,8.647679E3,1.1245801E3,7.5521313E3,2.34967E3,1.494549E3,5.8309697E3,8.30341E3,6.934619E3,1.296819E3,8.478538E3,1.6914024E2,1.1210824E3,3.497734E0,7.461389E3,9.0742035E1,2.1549077E3,1.9476215E2,1.211814E3,2.8273495E2,4.3980293E3,1.4329407E3,5.972084E3,2.331326E3,2.2311208E3,4.703498E3,1.2705947E3,2.6224274E1,8.5689224E1,8.39285E3,9.615478E0,1.5952477E2,1.110403E3,1.0679333E1,7.1185605E3,3.42829E2,2.0877968E1,6.986407E1,1.656526E3,4.983818E2,1.7018681E2,2.457534E1,3.4774616E1,1.1770394E3,1.6589128E2,1.1684366E2,3.5064531E3,8.9157623E2,1.4094874E3,2.345317E1,4.8158804E3,1.1562034E3,1.0239542E1,2.3210864E3,8.643142E2,1.3668068E3,4.6613716E3,4.212677E1,1.2595303E3,1.1064392E1,7.820078E1,7.4884343E0,1.1434333E3,7.249416E3,5.4829154E0,4.1325626E0,4.192279E1,1.17601974E2,1.035555E3,7.48479E1,6.5878906E0,4.0914426E0,7.104693E3,1.3867553E1,1.6220166E2,1.8062735E2,5.296623E0,1.5581345E1,5.5945198E1,1.3918865E1,7.958474E2,8.606785E2,4.8055978E2,1.782202E1,2.4824354E1,1.4536246E2,2.472821E1,1.0046407E1,7.811826E2,3.958568E2,1.07563576E2,5.8327713E1,9.026045E1,2.65832E1,2.493701E3,1.01275226E3,6.950201E2,1.9655617E2,1.4030176E3,6.469867E0,1.5915039E1,7.538132E0,1.2160199E1,4.80372E3,7.0623724E2,4.4996616E2,2.312842E3,8.244385E0],"tree_param":{"num_deleted":"0","num_feature":"20","num_nodes":"115","size_leaf_vector":"1"}},{"base_weights":[-3.885325E-3,1.5664315E-1,-6.621356E-1,3.749329E-1,-1.1473546E-1,-3.6099014E-1,-9.967301E-1,1.9125056E-1,6.3010216E-1,2.155936E-1,-4.0431127E-1,-3.916548E-1,6.0585874E-1,-1.2506888E0,-8.7965363E-1,4.3818095E-1,-5.0212473E-2,2.3401392E-1,6.9002676E-1,-1.8931045E-1,1.5326043E0,-9.3190897E-1,-3.3079025E-1,-4.0244502E-1,3.1908473E-1,6.611555E-1,-3.772089E-2,-1.2594031E0,-6.3402814E-1,-9.032946E-1,-1.6025667E-3,2.0584968E-1,1.3772652E0,1.3628912E-1,-2.4436855E-1,2.990223E-1,1.00550644E-1,7.0475864E-1,-5.8877707E-1,-5.9622914E-1,-2.8282033E-2,1.5435672E0,-6.1932194E-1,-2.405144E-1,-9.9378353E-1,-4.5543185E-1,-9.907632E-2,-5.034325E-1,-3.2819426E-1,7.017517E-1,1.616256E-1,2.0915933E-1,7.3607004E-1,-1.1535832E0,-1.2959075E0,-5.846444E-3,-7.221203E-1,-1.0099887E0,-8.1509286E-1,6.884639E-1,-5.804656E-1,-6.622735E-3,1.6655687E-2,7.01148E-2,-6.753245E-2,-1.2114885E-2,9.100783E-3,-1.11189075E-2,-5.3684425E-2,1.5972793E-2,-1.614939E-2,-7.025238E-2,6.6437847E-3,3.6550898E-2,1.010825E-2,-1.3613564E-2,-4.2210512E-2,-3.3251334E-2,-1.3605802E-2,-5.343472E-3,6.48143E-3,7.763919E-2,-3.7636843E-2,-5.0895024E-2,-6.4490708E-3,-8.063833E-3,-5.8585793E-2,-1.0931017E-2,-4.9956135E-2,-6.7996467E-3,-2.5083328E-2,8.114199E-2,-5.42321E-3,-3.0141225E-2,-2.2552839E-2,-1.58624E-2,-7.233643E-2,4.5333877E-2,2.5077214E-2,1.895161E-2,-3.2498208E-3,2.0409243E-2,-2.5392888E-2,3.782525E-2,1.7954363E-2,-5.9152376E-2,-3.257767E-2,-6.988486E-2,-6.1968323E-2,-4.0601753E-2,-1.3980806E-2,-5.745382E-2,-4.6854015E-2,-4.1014295E-2,3.2178495E-2,-2.987108E-2,4.55313E-2,-3.2426327E-2,2.8429052E-3],"categories":[],"categories_nodes":[],"categories_segments":[],"categories_sizes":[],"default_left":[0,0,0,0,0,0,0,0,0,0,0,0,0,0,0,0,0,0,0,0,0,0,0,0,0,0,0,0,0,0,0,0,0,0,0,0,0,0,0,0,0,0,0,0,0,0,0,0,0,0,0,0,0,0,0,0,0,0,0,0,0,0,0,0,0,0,0,0,0,0,0,0,0,0,0,0,0,0,0,0,0,0,0,0,0,0,0,0,0,0,0,0,0,0,0,0,0,0,0,0,0,0,0,0,0,0,0,0,0,0,0,0,0,0,0,0,0,0,0],"id":5,"left_children":[1,3,5,7,9,11,13,15,17,19,21,23,25,27,29,31,33,35,37,39,41,43,45,47,49,51,-1,53,55,57,59,61,63,65,67,69,71,73,75,77,79,81,83,85,87,89,91,93,95,97,99,101,103,105,107,-1,109,111,113,115,117,-1,-1,-1,-1,-1,-1,-1,-1,-1,-1,-1,-1,-1,-1,-1,-1,-1,-1,-1,-1,-1,-1,-1,-1,-1,-1,-1,-1,-1,-1,-1,-1,-1,-1,-1,-1,-1,-1,-1,-1,-1,-1,-1,-1,-1,-1,-1,-1,-1,-1,-1,-1,-1,-1,-1,-1,-1,-1],"loss_changes":[4.5845645E3,2.0663162E3,8.5661523E2,9.058479E2,1.4875114E3,1.3299963E2,1.18468994E2,6.703419E2,1.9177563E2,3.874145E3,3.2099304E2,3.343341E1,1.0867512E1,5.8292236E0,5.7223145E1,1.212246E3,2.0588089E2,9.169239E0,1.3280054E2,3.6403665E2,4.134961E1,4.2963806E1,2.100008E2,3.182489E1,3.7377272E0,4.261322E0,0E0,3.0875244E0,7.3589325E-1,2.4295654E1,2.9750505E1,1.919604E2,7.715405E1,5.0237232E1,5.0434647E1,9.191452E0,1.7132929E1,9.144409E1,6.165907E0,3.48515E1,4.9434372E1,3.722827E1,1.5767462E0,5.9232054E0,3.505249E0,6.9721375E1,4.118112E1,9.044678E0,2.9587433E1,1.6615677E-1,2.410202E0,3.1260054E0,4.9240112E-1,3.9321594E0,3.3011475E0,0E0,3.2435417E-1,1.1005615E1,1.1737854E1,1.0262613E1,1.8569002E0,0E0,0E0,0E0,0E0,0E0,0E0,0E0,0E0,0E0,0E0,0E0,0E0,0E0,0E0,0E0,0E0,0E0,0E0,0E0,0E0,0E0,0E0,0E0,0E0,0E0,0E0,0E0,0E0,0E0,0E0,0E0,0E0,0E0,0E0,0E0,0E0,0E0,0E0,0E0,0E0,0E0,0E0,0E0,0E0,0E0,0E0,0E0,0E0,0E0,0E0,0E0,0E0,0E0,0E0,0E0,0E0,0E0,0E0],"parents":[2147483647,0,0,1,1,2,2,3,3,4,4,5,5,6,6,7,7,8,8,9,9,10,10,11,11,12,12,13,13,14,14,15,15,16,16,17,17,18,18,19,19,20,20,21,21,22,22,23,23,24,24,25,25,27,27,28,28,29,29,30,30,31,31,32,32,33,33,34,34,35,35,36,36,37,37,38,38,39,39,40,40,41,41,42,42,43,43,44,44,45,45,46,46,47,47,48,48,49,49,50,50,51,51,52,52,53,53,54,54,56,56,57,57,58,58,59,59,60,60],"right_children":[2,4,6,8,10,12,14,16,18,20,22,24,26,28,30,32,34,36,38,40,42,44,46,48,50,52,-1,54,56,58,60,62,64,66,68,70,72,74,76,78,80,82,84,86,88,90,92,94,96,98,100,102,104,106,108,-1,110,112,114,116,118,-1,-1,-1,-1,-1,-1,-1,-1,-1,-1,-1,-1,-1,-1,-1,-1,-1,-1,-1,-1,-1,-1,-1,-1,-1,-1,-1,-1,-1,-1,-1,-1,-1,-1,-1,-1,-1,-1,-1,-1,-1,-1,-1,-1,-1,-1,-1,-1,-1,-1,-1,-1,-1,-1,-1,-1,-1,-1],"split_conditions":[8.86645E-1,5.2476443E-2,4.1876435E-1,3E1,1E0,3E1,1E0,1E0,1E0,1E0,1E0,1E0,5.2476443E-2,3E1,3E1,1E0,-4.7659017E-2,1E0,1E0,1E0,1E0,4.1876435E-1,3E1,5.7E1,2.8E1,1E0,-3.772089E-2,5E1,2.1E1,5.9E1,1E0,1E0,1E0,1E0,1E0,-3.9958887E-2,1E0,1E0,1E0,-3.9958887E-2,3E1,1E0,3E1,1E0,1E0,4.1876435E-1,1E6,1E6,1E0,1.8E1,1E0,1E0,1E0,2.9E1,5.9E1,-5.846444E-3,1.1E2,1E0,1.39E2,3.2E1,1.4E2,-6.622735E-3,1.6655687E-2,7.01148E-2,-6.753245E-2,-1.2114885E-2,9.100783E-3,-1.11189075E-2,-5.3684425E-2,1.5972793E-2,-1.614939E-2,-7.025238E-2,6.6437847E-3,3.6550898E-2,1.010825E-2,-1.3613564E-2,-4.2210512E-2,-3.3251334E-2,-1.3605802E-2,-5.343472E-3,6.48143E-3,7.763919E-2,-3.7636843E-2,-5.0895024E-2,-6.4490708E-3,-8.063833E-3,-5.8585793E-2,-1.0931017E-2,-4.9956135E-2,-6.7996467E-3,-2.5083328E-2,8.114199E-2,-5.42321E-3,-3.0141225E-2,-2.2552839E-2,-1.58624E-2,-7.233643E-2,4.5333877E-2,2.5077214E-2,1.895161E-2,-3.2498208E-3,2.0409243E-2,-2.5392888E-2,3.782525E-2,1.7954363E-2,-5.9152376E-2,-3.257767E-2,-6.988486E-2,-6.1968323E-2,-4.0601753E-2,-1.3980806E-2,-5.745382E-2,-4.6854015E-2,-4.1014295E-2,3.2178495E-2,-2.987108E-2,4.55313E-2,-3.2426327E-2,2.8429052E-3],"split_indices":[5,4,4,6,3,6,1,3,1,0,1,15,4,6,6,0,5,3,8,1,11,4,6,18,18,1,0,18,18,18,3,1,8,1,8,5,0,11,16,5,6,8,6,11,0,4,13,13,8,18,3,15,11,18,18,0,18,0,18,18,18,0,0,0,0,0,0,0,0,0,0,0,0,0,0,0,0,0,0,0,0,0,0,0,0,0,0,0,0,0,0,0,0,0,0,0,0,0,0,0,0,0,0,0,0,0,0,0,0,0,0,0,0,0,0,0,0,0,0],"split_type":[0,0,0,0,0,0,0,0,0,0,0,0,0,0,0,0,0,0,0,0,0,0,0,0,0,0,0,0,0,0,0,0,0,0,0,0,0,0,0,0,0,0,0,0,0,0,0,0,0,0,0,0,0,0,0,0,0,0,0,0,0,0,0,0,0,0,0,0,0,0,0,0,0,0,0,0,0,0,0,0,0,0,0,0,0,0,0,0,0,0,0,0,0,0,0,0,0,0,0,0,0,0,0,0,0,0,0,0,0,0,0,0,0,0,0,0,0,0,0],"sum_hessian":[4.338407E4,3.4878746E4,8.505322E3,1.933011E4,1.5548638E4,4.477663E3,4.027659E3,1.1240695E4,8.089415E3,7.263184E3,8.285454E3,4.340692E3,1.3697137E2,1.2675629E3,2.7600962E3,5.557232E3,5.683463E3,1.0638931E3,7.025522E3,5.555861E3,1.7073232E3,1.01177435E3,7.273679E3,4.276344E3,6.4347664E1,1.3218536E2,4.786016E0,1.2487124E3,1.8850454E1,2.6875916E3,7.2504524E1,4.456108E3,1.1011241E3,2.898764E3,2.784699E3,7.1408234E2,3.4981076E2,6.9460303E3,7.9491356E1,1.5742949E3,3.981566E3,1.698997E3,8.326299E0,8.364275E1,9.281316E2,4.7286743E3,2.5450054E3,1.8089236E3,2.4674204E3,1.7565962E1,4.67817E1,1.9522612E1,1.1266275E2,3.2934418E2,9.193682E2,3.2478933E0,1.5602561E1,1.2110499E3,1.4765416E3,3.2910095E1,3.9594433E1,1.21786E3,3.238248E3,1.0916301E3,9.493955E0,3.1168906E2,2.5870747E3,2.7141196E3,7.0579384E1,6.919968E2,2.2085533E1,6.394941E0,3.4341583E2,6.6005156E3,3.4551468E2,3.6599068E1,4.2892284E1,1.2975182E3,2.7677673E2,2.6591453E3,1.3224207E3,1.6925708E3,6.4261026E0,3.8869247E0,4.439374E0,7.8263725E1,5.3790326E0,6.764114E0,9.213675E2,5.9865155E2,4.1300225E3,1.2810433E1,2.5321948E3,6.1998193E2,1.1889417E3,2.4448674E3,2.2553091E1,6.6900597E0,1.0875902E1,2.3758272E1,2.3023428E1,1.5727301E1,3.79531E0,1.0566312E2,6.999637E0,3.096169E2,1.9727264E1,3.1921106E2,6.0015717E2,1.2085723E1,3.5168383E0,4.109488E2,8.0010114E2,1.471808E3,4.73368E0,4.53309E0,2.8377005E1,3.589994E1,3.6944923E0],"tree_param":{"num_deleted":"0","num_feature":"20","num_nodes":"119","size_leaf_vector":"1"}},{"base_weights":[-1.9505075E-3,1.5077591E-1,-6.3055426E-1,3.6778685E-1,-1.21315345E-1,-3.3549282E-1,-9.576668E-1,1.9748835E-1,6.073659E-1,1.8632841E-1,-3.894061E-1,-3.642601E-1,5.628257E-1,-1.195627E0,-8.486003E-1,4.4386792E-1,-4.269381E-2,2.2621316E-1,6.658165E-1,-1.9943404E-1,1.4572247E0,-8.911805E-1,-3.1899786E-1,-3.751752E-1,4.1026416E-1,6.0331875E-1,1.5860513E-1,-1.2048941E0,-5.94644E-1,-8.737012E-1,8.501282E-2,2.2952166E-1,1.3153889E0,1.4036827E-1,-2.3605353E-1,2.4284483E-1,-2.1200947E-1,6.911531E-1,2.0308758E-1,-6.16943E-1,-3.3497352E-2,1.4892391E0,-5.080336E-1,-2.0175241E-1,-9.577675E-1,-4.2873442E-1,-1.10233285E-1,-4.7774276E-1,-3.295169E-1,5.134066E-1,-1.799508E-2,3.6704132E-1,6.9783896E-1,2.1729669E-2,2.4225267E-4,-1.2197192E0,-1.0747144E0,-3.764807E-2,1.3936266E-3,-8.852432E-1,-1.0104524E-1,6.386357E-1,-3.6603573E-1,-4.12237E-3,1.7454565E-2,6.740653E-2,-3.6350884E-2,1.4055756E-2,-1.8442863E-4,-9.89676E-3,-3.0486172E-2,1.5589875E-2,7.3220194E-3,-8.808262E-2,7.890285E-3,3.9996803E-2,3.0621542E-2,-8.0768324E-2,2.9169843E-2,-3.3835806E-2,-1.6143337E-2,4.040416E-3,-2.7703617E-2,7.505902E-2,-2.5598932E-2,-5.659869E-2,-1.7677592E-2,-6.255655E-3,-5.7287913E-2,-5.1536143E-2,-3.9061293E-2,-5.29866E-3,-2.380984E-2,7.449358E-2,-5.962088E-3,-1.8368341E-2,-2.5410106E-2,-1.569964E-2,-3.654471E-2,3.018104E-2,-2.5606543E-2,2.7083054E-2,5.581069E-3,3.0817268E-2,5.359125E-2,-6.115937E-2,-4.278191E-2,-6.2258076E-2,-4.637338E-2,-5.076864E-2,-4.1341506E-2,2.0548366E-2,-7.0470095E-2,-4.6317935E-2,4.180701E-2,-9.498356E-3,-3.8810745E-2],"categories":[],"categories_nodes":[],"categories_segments":[],"categories_sizes":[],"default_left":[0,0,0,0,0,0,0,0,0,0,0,0,0,0,0,0,0,0,0,0,0,0,0,0,0,0,0,0,0,0,0,0,0,0,0,0,0,0,0,0,0,0,0,0,0,0,0,0,0,0,0,0,0,0,0,0,0,0,0,0,0,0,0,0,0,0,0,0,0,0,0,0,0,0,0,0,0,0,0,0,0,0,0,0,0,0,0,0,0,0,0,0,0,0,0,0,0,0,0,0,0,0,0,0,0,0,0,0,0,0,0,0,0,0,0,0,0],"id":6,"left_children":[1,3,5,7,9,11,13,15,17,19,21,23,25,27,29,31,33,35,37,39,41,43,45,47,49,51,53,55,57,59,61,63,65,67,69,71,73,75,77,79,81,83,85,87,89,91,93,95,97,99,-1,101,103,-1,-1,105,107,-1,-1,109,111,113,115,-1,-1,-1,-1,-1,-1,-1,-1,-1,-1,-1,-1,-1,-1,-1,-1,-1,-1,-1,-1,-1,-1,-1,-1,-1,-1,-1,-1,-1,-1,-1,-1,-1,-1,-1,-1,-1,-1,-1,-1,-1,-1,-1,-1,-1,-1,-1,-1,-1,-1,-1,-1,-1,-1],"loss_changes":[4.155498E3,2.056263E3,8.161741E2,7.9020996E2,1.2744617E3,1.1518399E2,1.0290112E2,6.702511E2,1.7906763E2,3.5280642E3,2.9130347E2,3.660974E1,2.0929565E0,6.1104736E0,6.470703E1,1.0439589E3,2.0306255E2,7.86681E0,8.1575195E1,3.8239093E2,1.0628198E2,4.630005E1,1.658205E2,1.9680725E1,4.988778E0,2.4332085E0,5.557179E-1,8.487549E-1,2.1871977E0,2.3736694E1,1.8472189E1,1.6748769E2,7.482251E1,5.977236E1,3.953775E1,6.7776833E0,2.307914E1,5.6014893E1,2.5246288E2,2.7277222E1,2.3524384E2,4.0276367E1,2.107192E0,6.300399E0,1.0933289E1,7.260425E1,3.6034042E1,4.120819E0,1.8029541E1,5.285533E0,0E0,1.5772028E0,1.8527756E0,0E0,0E0,1.3842773E-1,2.0326385E0,0E0,0E0,1.9066162E1,2.7971474E1,1.1029133E1,2.69697E0,0E0,0E0,0E0,0E0,0E0,0E0,0E0,0E0,0E0,0E0,0E0,0E0,0E0,0E0,0E0,0E0,0E0,0E0,0E0,0E0,0E0,0E0,0E0,0E0,0E0,0E0,0E0,0E0,0E0,0E0,0E0,0E0,0E0,0E0,0E0,0E0,0E0,0E0,0E0,0E0,0E0,0E0,0E0,0E0,0E0,0E0,0E0,0E0,0E0,0E0,0E0,0E0,0E0,0E0],"parents":[2147483647,0,0,1,1,2,2,3,3,4,4,5,5,6,6,7,7,8,8,9,9,10,10,11,11,12,12,13,13,14,14,15,15,16,16,17,17,18,18,19,19,20,20,21,21,22,22,23,23,24,24,25,25,26,26,27,27,28,28,29,29,30,30,31,31,32,32,33,33,34,34,35,35,36,36,37,37,38,38,39,39,40,40,41,41,42,42,43,43,44,44,45,45,46,46,47,47,48,48,49,49,51,51,52,52,55,55,56,56,59,59,60,60,61,61,62,62],"right_children":[2,4,6,8,10,12,14,16,18,20,22,24,26,28,30,32,34,36,38,40,42,44,46,48,50,52,54,56,58,60,62,64,66,68,70,72,74,76,78,80,82,84,86,88,90,92,94,96,98,100,-1,102,104,-1,-1,106,108,-1,-1,110,112,114,116,-1,-1,-1,-1,-1,-1,-1,-1,-1,-1,-1,-1,-1,-1,-1,-1,-1,-1,-1,-1,-1,-1,-1,-1,-1,-1,-1,-1,-1,-1,-1,-1,-1,-1,-1,-1,-1,-1,-1,-1,-1,-1,-1,-1,-1,-1,-1,-1,-1,-1,-1,-1,-1,-1],"split_conditions":[8.86645E-1,5.2476443E-2,4.1876435E-1,3E1,1E0,3E1,1E0,1E0,1E0,1E0,1E0,1E0,1E0,1E0,3E1,1E0,-4.7659017E-2,1E0,1E0,1E0,1E0,4.1876435E-1,3E1,1E0,1E0,3E0,3E0,1E0,3E1,1E0,1E0,1E0,1E0,1E0,1E0,-1.1822639E-1,1E0,1E0,1E0,-3.9958887E-2,1E0,1E0,4.1876435E-1,1E0,3E1,4.1876435E-1,1E6,2E0,1E0,1E0,-1.799508E-2,1E0,1E0,2.1729669E-2,2.4225267E-4,3E1,1E0,-3.764807E-2,1.3936266E-3,1E0,1E0,1E0,1E0,-4.12237E-3,1.7454565E-2,6.740653E-2,-3.6350884E-2,1.4055756E-2,-1.8442863E-4,-9.89676E-3,-3.0486172E-2,1.5589875E-2,7.3220194E-3,-8.808262E-2,7.890285E-3,3.9996803E-2,3.0621542E-2,-8.0768324E-2,2.9169843E-2,-3.3835806E-2,-1.6143337E-2,4.040416E-3,-2.7703617E-2,7.505902E-2,-2.5598932E-2,-5.659869E-2,-1.7677592E-2,-6.255655E-3,-5.7287913E-2,-5.1536143E-2,-3.9061293E-2,-5.29866E-3,-2.380984E-2,7.449358E-2,-5.962088E-3,-1.8368341E-2,-2.5410106E-2,-1.569964E-2,-3.654471E-2,3.018104E-2,-2.5606543E-2,2.7083054E-2,5.581069E-3,3.0817268E-2,5.359125E-2,-6.115937E-2,-4.278191E-2,-6.2258076E-2,-4.637338E-2,-5.076864E-2,-4.1341506E-2,2.0548366E-2,-7.0470095E-2,-4.6317935E-2,4.180701E-2,-9.498356E-3,-3.8810745E-2],"split_indices":[5,4,4,6,3,6,2,3,2,0,2,15,9,15,6,0,5,11,11,2,9,4,6,2,9,19,19,9,6,15,3,2,9,15,11,5,7,3,7,5,9,11,4,11,6,4,13,19,11,7,0,0,16,0,0,6,3,0,0,0,9,17,9,0,0,0,0,0,0,0,0,0,0,0,0,0,0,0,0,0,0,0,0,0,0,0,0,0,0,0,0,0,0,0,0,0,0,0,0,0,0,0,0,0,0,0,0,0,0,0,0,0,0,0,0,0,0],"split_type":[0,0,0,0,0,0,0,0,0,0,0,0,0,0,0,0,0,0,0,0,0,0,0,0,0,0,0,0,0,0,0,0,0,0,0,0,0,0,0,0,0,0,0,0,0,0,0,0,0,0,0,0,0,0,0,0,0,0,0,0,0,0,0,0,0,0,0,0,0,0,0,0,0,0,0,0,0,0,0,0,0,0,0,0,0,0,0,0,0,0,0,0,0,0,0,0,0,0,0,0,0,0,0,0,0,0,0,0,0,0,0,0,0,0,0,0,0],"sum_hessian":[4.328196E4,3.4822133E4,8.45983E3,1.9371824E4,1.5450308E4,4.449044E3,4.0107869E3,1.1324408E4,8.0474165E3,7.194404E3,8.255904E3,4.311675E3,1.3736902E2,1.257125E3,2.7536619E3,5.5898706E3,5.734537E3,1.0708765E3,6.97654E3,5.519732E3,1.6746716E3,1.0142967E3,7.2416074E3,4.252392E3,5.9282604E1,1.2418842E2,1.31805935E1,1.236881E3,2.0243954E1,2.681733E3,7.192903E1,4.4875566E3,1.1023141E3,2.9455825E3,2.7889546E3,1.0323694E3,3.850705E1,6.613698E3,3.6284155E2,1.5689122E3,3.9508198E3,1.6481166E3,2.6555023E1,8.982268E1,9.24474E2,4.745575E3,2.4960322E3,1.3062828E3,2.9461094E3,5.2689526E1,6.593079E0,3.7182495E1,8.7005936E1,3.82972E0,9.350874E0,1.1022212E3,1.3465976E2,1.6100416E1,4.1435375E0,2.6419915E3,3.974133E1,3.2205452E1,3.972358E1,1.243255E3,3.2443018E3,1.0853046E3,1.7009426E1,1.489778E3,1.4558046E3,2.5324182E3,2.5653638E2,5.999718E2,4.3239755E2,6.7459946E0,3.1761055E1,2.7723196E3,3.841379E3,6.215173E1,3.0068982E2,1.3025239E3,2.6638837E2,3.2400383E3,7.107814E2,1.6386388E3,9.477801E0,3.8857775E0,2.2669247E1,8.422344E1,5.5992317E0,6.503244E2,2.741496E2,6.09064E2,4.136511E3,1.299135E1,2.4830408E3,2.8605334E2,1.0202295E3,2.838361E3,1.0774811E2,4.889708E1,3.7924461E0,2.1186205E1,1.5996287E1,7.383279E1,1.3173143E1,1.0892112E3,1.3010059E1,5.86423E1,7.601746E1,8.1291876E2,1.8290728E3,2.9001383E1,1.0739948E1,3.138651E0,2.9066801E1,2.8987625E1,1.0735952E1],"tree_param":{"num_deleted":"0","num_feature":"20","num_nodes":"117","size_leaf_vector":"1"}},{"base_weights":[3.3683956E-3,1.5029438E-1,-6.0520416E-1,3.4934214E-1,-9.9043705E-2,-3.2352078E-1,-9.1946435E-1,1.8036397E-1,5.848999E-1,1.9298775E-1,-3.5529524E-1,-3.4834072E-1,4.852445E-1,-1.1653498E0,-8.07457E-1,4.0939286E-1,-4.310095E-2,2.0607266E-1,6.417327E-1,-3.3128437E-1,3.6375853E-1,-8.669719E-1,-2.843532E-1,-4.7276005E-1,-2.5796163E-1,6.888857E-1,2.69606E-1,-1.1753423E0,-6.11359E-1,-8.309657E-1,4.6349023E-2,-3.533275E-2,5.478608E-1,1.3160524E-1,-2.2625989E-1,2.6426932E-1,5.2867953E-2,6.5565014E-1,-4.9054006E-1,-4.718354E-1,2.065574E-1,5.0396955E-1,-5.3355247E-1,-3.0130184E-1,-9.208694E-1,-1.4898616E-1,-4.5084786E-1,-4.8749647E-1,4.7999918E-1,-2.4839686E-1,-5.956133E-2,7.654088E-1,-2.594775E-2,-1.2148241E-1,3.7913242E-1,-1.0651557E0,-1.2134267E0,-2.6637244E-1,-5.218671E-2,-8.420393E-1,-1.3280804E-1,6.822064E-1,-4.289319E-1,4.5494926E-3,-7.866322E-3,3.0007461E-2,1.4971374E-4,7.633718E-3,-4.8094682E-2,-1.00896E-2,-5.9272982E-2,1.3796418E-2,-2.6164507E-2,1.1178117E-3,3.84636E-2,3.39687E-2,1.04589835E-2,-8.9179315E-3,-3.711277E-2,-3.7258305E-3,-2.5725955E-2,1.3263597E-2,-6.0115486E-2,1.764843E-2,4.9324702E-2,-3.568093E-2,-5.7680886E-3,-1.0057487E-2,-4.9459033E-2,-4.90594E-2,-3.8922958E-2,7.6518156E-2,-7.8034396E-3,-2.5977513E-2,-1.047822E-2,-2.3779564E-2,-4.3441538E-2,3.0340094E-2,-1.6804073E-2,-2.0176617E-2,-9.451005E-3,4.1770503E-2,2.8379945E-2,5.0490355E-4,-1.2641102E-2,2.5796384E-2,-5.0835395E-3,-5.8840632E-2,-4.678767E-2,-7.566881E-2,-5.9371885E-2,6.74249E-3,-2.5457487E-2,-4.6656523E-2,-3.8372666E-2,9.977615E-3,-5.5680837E-2,-2.4763629E-2,4.362955E-2,-2.4493583E-2,9.296042E-3],"categories":[],"categories_nodes":[],"categories_segments":[],"categories_sizes":[],"default_left":[0,0,0,0,0,0,0,0,0,0,0,0,0,0,0,0,0,0,0,0,0,0,0,0,0,0,0,0,0,0,0,0,0,0,0,0,0,0,0,0,0,0,0,0,0,0,0,0,0,0,0,0,0,0,0,0,0,0,0,0,0,0,0,0,0,0,0,0,0,0,0,0,0,0,0,0,0,0,0,0,0,0,0,0,0,0,0,0,0,0,0,0,0,0,0,0,0,0,0,0,0,0,0,0,0,0,0,0,0,0,0,0,0,0,0,0,0,0,0,0,0],"id":7,"left_children":[1,3,5,7,9,11,13,15,17,19,21,23,25,27,29,31,33,35,37,39,41,43,45,47,49,51,53,55,57,59,61,63,65,67,69,71,73,75,77,79,81,83,85,87,89,91,93,95,97,99,-1,101,-1,103,105,107,109,111,-1,113,115,117,119,-1,-1,-1,-1,-1,-1,-1,-1,-1,-1,-1,-1,-1,-1,-1,-1,-1,-1,-1,-1,-1,-1,-1,-1,-1,-1,-1,-1,-1,-1,-1,-1,-1,-1,-1,-1,-1,-1,-1,-1,-1,-1,-1,-1,-1,-1,-1,-1,-1,-1,-1,-1,-1,-1,-1,-1,-1,-1],"loss_changes":[3.8636428E3,1.7275562E3,7.434529E2,7.702705E2,1.1564325E3,8.914203E1,1.0823413E2,5.769843E2,1.7384131E2,6.4674854E2,2.9841357E2,4.8177673E1,5.5277157E0,5.968872E0,5.495215E1,3.4290656E2,1.8263454E2,9.3727E0,1.1110596E2,1.3429704E2,6.857571E2,3.0136108E1,1.6282855E2,2.562439E1,2.1826263E1,6.629015E0,2.9046602E0,3.5871582E0,3.2062588E0,2.0346802E1,2.2693262E1,2.0403194E1,1.20898315E2,6.736038E1,6.501767E1,7.1423645E0,6.297848E0,7.332349E1,6.520565E0,2.3774841E1,3.0689598E1,3.428999E2,5.5309784E1,5.797983E0,6.909607E0,4.7556496E1,5.355237E1,7.539673E0,3.1227217E0,2.2621002E1,0E0,2.6670074E-1,0E0,2.865133E-1,3.5210886E0,3.3324585E0,4.922119E0,1.562545E0,0E0,1.6894287E1,1.4279678E1,7.6760902E0,1.7286372E0,0E0,0E0,0E0,0E0,0E0,0E0,0E0,0E0,0E0,0E0,0E0,0E0,0E0,0E0,0E0,0E0,0E0,0E0,0E0,0E0,0E0,0E0,0E0,0E0,0E0,0E0,0E0,0E0,0E0,0E0,0E0,0E0,0E0,0E0,0E0,0E0,0E0,0E0,0E0,0E0,0E0,0E0,0E0,0E0,0E0,0E0,0E0,0E0,0E0,0E0,0E0,0E0,0E0,0E0,0E0,0E0,0E0,0E0],"parents":[2147483647,0,0,1,1,2,2,3,3,4,4,5,5,6,6,7,7,8,8,9,9,10,10,11,11,12,12,13,13,14,14,15,15,16,16,17,17,18,18,19,19,20,20,21,21,22,22,23,23,24,24,25,25,26,26,27,27,28,28,29,29,30,30,31,31,32,32,33,33,34,34,35,35,36,36,37,37,38,38,39,39,40,40,41,41,42,42,43,43,44,44,45,45,46,46,47,47,48,48,49,49,51,51,53,53,54,54,55,55,56,56,57,57,59,59,60,60,61,61,62,62],"right_children":[2,4,6,8,10,12,14,16,18,20,22,24,26,28,30,32,34,36,38,40,42,44,46,48,50,52,54,56,58,60,62,64,66,68,70,72,74,76,78,80,82,84,86,88,90,92,94,96,98,100,-1,102,-1,104,106,108,110,112,-1,114,116,118,120,-1,-1,-1,-1,-1,-1,-1,-1,-1,-1,-1,-1,-1,-1,-1,-1,-1,-1,-1,-1,-1,-1,-1,-1,-1,-1,-1,-1,-1,-1,-1,-1,-1,-1,-1,-1,-1,-1,-1,-1,-1,-1,-1,-1,-1,-1,-1,-1,-1,-1,-1,-1,-1,-1,-1,-1,-1,-1],"split_conditions":[8.86645E-1,5.2476443E-2,4.1876435E-1,3E1,1E0,3E1,1E0,1E0,1E0,1E0,1E0,5.7E1,5.2E1,1E0,3E1,1E0,-4.7659017E-2,-4.7659017E-2,1E0,-3.9958887E-2,1E0,4.1876435E-1,-1.1822639E-1,1E0,1E0,1E0,6.5E1,4.9E1,1E0,1E0,1E0,-4.7659017E-2,1E0,1E0,1E0,1.42E2,1E0,1E0,1E0,4.1876435E-1,1E0,1E0,3E1,1E0,3E1,1E6,3E1,1E0,1E0,1E0,-5.956133E-2,1E0,-2.594775E-2,1E0,1E0,2.5E1,5.4E1,4.9E1,-5.218671E-2,5.9E1,1E0,3.1E1,1.4E2,4.5494926E-3,-7.866322E-3,3.0007461E-2,1.4971374E-4,7.633718E-3,-4.8094682E-2,-1.00896E-2,-5.9272982E-2,1.3796418E-2,-2.6164507E-2,1.1178117E-3,3.84636E-2,3.39687E-2,1.04589835E-2,-8.9179315E-3,-3.711277E-2,-3.7258305E-3,-2.5725955E-2,1.3263597E-2,-6.0115486E-2,1.764843E-2,4.9324702E-2,-3.568093E-2,-5.7680886E-3,-1.0057487E-2,-4.9459033E-2,-4.90594E-2,-3.8922958E-2,7.6518156E-2,-7.8034396E-3,-2.5977513E-2,-1.047822E-2,-2.3779564E-2,-4.3441538E-2,3.0340094E-2,-1.6804073E-2,-2.0176617E-2,-9.451005E-3,4.1770503E-2,2.8379945E-2,5.0490355E-4,-1.2641102E-2,2.5796384E-2,-5.0835395E-3,-5.8840632E-2,-4.678767E-2,-7.566881E-2,-5.9371885E-2,6.74249E-3,-2.5457487E-2,-4.6656523E-2,-3.8372666E-2,9.977615E-3,-5.5680837E-2,-2.4763629E-2,4.362955E-2,-2.4493583E-2,9.296042E-3],"split_indices":[5,4,4,6,3,6,1,3,1,1,1,18,18,15,6,1,5,5,8,5,9,4,5,15,8,11,18,18,3,15,3,5,9,8,8,18,16,11,16,4,9,16,6,16,6,13,6,11,11,1,0,15,0,3,15,18,18,18,0,18,9,18,18,0,0,0,0,0,0,0,0,0,0,0,0,0,0,0,0,0,0,0,0,0,0,0,0,0,0,0,0,0,0,0,0,0,0,0,0,0,0,0,0,0,0,0,0,0,0,0,0,0,0,0,0,0,0,0,0,0,0],"split_type":[0,0,0,0,0,0,0,0,0,0,0,0,0,0,0,0,0,0,0,0,0,0,0,0,0,0,0,0,0,0,0,0,0,0,0,0,0,0,0,0,0,0,0,0,0,0,0,0,0,0,0,0,0,0,0,0,0,0,0,0,0,0,0,0,0,0,0,0,0,0,0,0,0,0,0,0,0,0,0,0,0,0,0,0,0,0,0,0,0,0,0,0,0,0,0,0,0,0,0,0,0,0,0,0,0,0,0,0,0,0,0,0,0,0,0,0,0,0,0,0,0],"sum_hessian":[4.3208664E4,3.4806375E4,8.402288E3,1.9355104E4,1.54512705E4,4.432034E3,3.9702544E3,1.1271585E4,8.083519E3,7.2214077E3,8.229862E3,4.3007427E3,1.3129129E2,1.239322E3,2.7309324E3,5.566303E3,5.7052817E3,1.0553455E3,7.0281733E3,1.7739119E3,5.4474956E3,1.00056384E3,7.229299E3,1.8073451E3,2.4933975E3,6.615683E1,6.513446E1,1.216085E3,2.3237087E1,2.6578936E3,7.303874E1,1.3216157E3,4.2446875E3,2.9198848E3,2.785397E3,7.6382104E2,2.915244E2,6.9433384E3,8.483533E1,1.4066333E3,3.672786E2,4.711795E3,7.357006E2,8.7775826E1,9.12788E2,3.9887644E3,3.2405344E3,1.7804008E3,2.6944344E1,2.4694622E3,2.3935497E1,6.2637505E1,3.5193267E0,1.402673E1,5.1107735E1,3.204745E2,8.956104E2,1.3952175E1,9.284912E0,2.6160505E3,4.1843014E1,3.1145535E1,4.189321E1,6.490101E2,6.7260565E2,3.872752E3,3.719357E2,2.8656228E3,5.426191E1,2.7173945E3,6.800244E1,7.534437E2,1.0377346E1,2.8073853E2,1.0785891E1,6.5923013E3,3.5103717E2,3.8809277E1,4.602605E1,1.3694807E2,1.2696853E3,3.53432E2,1.3846584E1,3.590214E3,1.1215809E3,5.1360504E2,2.2209558E2,7.787531E1,9.900508E0,6.365726E2,2.7621545E2,1.5789344E1,3.972975E3,2.521112E3,7.1942236E2,1.7289331E3,5.14677E1,2.3648775E1,3.2955685E0,6.81474E2,1.787988E3,4.3510952E1,1.9126554E1,7.0877314E0,6.938998E0,3.989265E1,1.1215084E1,1.6727303E2,1.5320145E2,6.654221E1,8.2906824E2,5.2720513E0,8.680123E0,1.1719314E3,1.4441191E3,3.1771421E1,1.0071591E1,4.038956E0,2.7106579E1,3.8448395E1,3.4448173E0],"tree_param":{"num_deleted":"0","num_feature":"20","num_nodes":"121","size_leaf_vector":"1"}},{"base_weights":[5.48015E-4,1.4029513E-1,-5.761895E-1,3.3122858E-1,-9.760717E-2,-3.0426133E-1,-8.833686E-1,1.7417897E-1,5.509151E-1,1.7769022E-1,-3.3923107E-1,-3.2757777E-1,4.7359082E-1,-1.1065224E0,-7.8164923E-1,3.9238667E-1,-3.793516E-2,2.164775E-1,6.017922E-1,-1.8140578E-1,1.3826975E0,-8.1937295E-1,-2.7291417E-1,-3.3761743E-1,3.23108E-1,6.695675E-1,2.258908E-1,-1.1156518E0,-5.0164145E-1,-8.034697E-1,6.692872E-2,1.8774073E-1,1.2456546E0,1.3241753E-1,-2.1574984E-1,2.7606624E-1,5.0565943E-2,6.2525135E-1,1.689546E-1,-5.5095774E-1,-3.3900067E-2,1.4116205E0,-5.9039354E-1,-1.24837585E-1,-8.864732E-1,-3.852799E-1,-6.3816905E-2,-4.126611E-1,-2.4687654E-1,4.5946117E-2,2.4239337E-1,8.1239235E-1,5.5009604E-1,-2.4525858E-1,5.015878E-1,-1.1209741E0,-5.377656E-1,8.133835E-3,-3.3714563E-2,-8.1546885E-1,-8.054643E-2,6.0559213E-1,-3.5444117E-1,-4.8069004E-3,1.472224E-2,6.3943945E-2,-4.030249E-2,1.2925413E-2,2.8196632E-4,-1.2621201E-2,9.485613E-3,1.3523904E-2,5.8302034E-2,3.850226E-3,-5.9324678E-2,3.6331486E-2,2.7598891E-2,-7.586474E-2,2.7244715E-2,-3.0577874E-2,-1.346976E-2,3.5296127E-3,-2.5912797E-2,4.207882E-2,7.2841845E-2,-3.6208767E-2,7.8935055E-3,-3.0635311E-3,-5.0470937E-2,-4.836552E-2,-3.4959715E-2,-1.1412564E-2,-2.5079234E-2,-3.7195587E-3,5.1714756E-2,-2.2148577E-2,-5.207187E-3,-7.1859146E-3,-1.5927788E-2,1.6104344E-2,-3.1071141E-2,1.580033E-2,4.8777156E-2,6.1991453E-2,2.2110289E-2,-2.036235E-2,-3.186389E-4,1.0463095E-2,3.6172234E-2,-5.6676038E-2,-4.4684857E-2,-3.497063E-2,-1.3810064E-2,-4.2683773E-2,-2.9864354E-2,8.865704E-3,-4.2918492E-2,1.47403795E-2,6.828006E-2,-6.889179E-3,-5.087107E-2],"categories":[],"categories_nodes":[],"categories_segments":[],"categories_sizes":[],"default_left":[0,0,0,0,0,0,0,0,0,0,0,0,0,0,0,0,0,0,0,0,0,0,0,0,0,0,0,0,0,0,0,0,0,0,0,0,0,0,0,0,0,0,0,0,0,0,0,0,0,0,0,0,0,0,0,0,0,0,0,0,0,0,0,0,0,0,0,0,0,0,0,0,0,0,0,0,0,0,0,0,0,0,0,0,0,0,0,0,0,0,0,0,0,0,0,0,0,0,0,0,0,0,0,0,0,0,0,0,0,0,0,0,0,0,0,0,0,0,0,0,0],"id":8,"left_children":[1,3,5,7,9,11,13,15,17,19,21,23,25,27,29,31,33,35,37,39,41,43,45,47,49,51,53,55,57,59,61,63,65,67,69,71,73,75,77,79,81,83,85,87,89,91,93,95,97,-1,99,101,103,105,107,109,111,-1,-1,113,115,117,119,-1,-1,-1,-1,-1,-1,-1,-1,-1,-1,-1,-1,-1,-1,-1,-1,-1,-1,-1,-1,-1,-1,-1,-1,-1,-1,-1,-1,-1,-1,-1,-1,-1,-1,-1,-1,-1,-1,-1,-1,-1,-1,-1,-1,-1,-1,-1,-1,-1,-1,-1,-1,-1,-1,-1,-1,-1,-1],"loss_changes":[3.4797937E3,1.5787266E3,7.030288E2,6.6505786E2,1.0294169E3,8.118515E1,8.8687744E1,5.2052716E2,1.3653735E2,3.1304878E3,2.6209912E2,2.8457E1,6.085964E0,6.0994873E0,5.0480347E1,9.675702E2,1.7278242E2,1.0462864E1,7.063794E1,3.0375436E2,9.570166E1,4.6369568E1,1.7011438E2,2.8935425E1,2.849225E0,6.459122E-1,7.85185E0,2.9707031E0,2.4943E0,2.2844116E1,1.5896982E1,1.3551582E2,7.415454E1,4.6535793E1,4.1555832E1,3.427353E0,9.222231E0,4.8615234E1,2.2905933E2,2.6873566E1,2.0176521E2,4.0745605E1,2.6385813E0,4.85544E0,1.2951233E1,8.584906E1,2.9397701E1,2.1754944E1,1.4235977E1,0E0,4.293077E0,2.0188007E0,2.4610157E0,8.2399094E-1,2.2116394E0,2.2164307E0,2.6688838E-1,0E0,0E0,2.1084229E1,9.152755E0,6.694545E0,5.379487E0,0E0,0E0,0E0,0E0,0E0,0E0,0E0,0E0,0E0,0E0,0E0,0E0,0E0,0E0,0E0,0E0,0E0,0E0,0E0,0E0,0E0,0E0,0E0,0E0,0E0,0E0,0E0,0E0,0E0,0E0,0E0,0E0,0E0,0E0,0E0,0E0,0E0,0E0,0E0,0E0,0E0,0E0,0E0,0E0,0E0,0E0,0E0,0E0,0E0,0E0,0E0,0E0,0E0,0E0,0E0,0E0,0E0,0E0],"parents":[2147483647,0,0,1,1,2,2,3,3,4,4,5,5,6,6,7,7,8,8,9,9,10,10,11,11,12,12,13,13,14,14,15,15,16,16,17,17,18,18,19,19,20,20,21,21,22,22,23,23,24,24,25,25,26,26,27,27,28,28,29,29,30,30,31,31,32,32,33,33,34,34,35,35,36,36,37,37,38,38,39,39,40,40,41,41,42,42,43,43,44,44,45,45,46,46,47,47,48,48,50,50,51,51,52,52,53,53,54,54,55,55,56,56,59,59,60,60,61,61,62,62],"right_children":[2,4,6,8,10,12,14,16,18,20,22,24,26,28,30,32,34,36,38,40,42,44,46,48,50,52,54,56,58,60,62,64,66,68,70,72,74,76,78,80,82,84,86,88,90,92,94,96,98,-1,100,102,104,106,108,110,112,-1,-1,114,116,118,120,-1,-1,-1,-1,-1,-1,-1,-1,-1,-1,-1,-1,-1,-1,-1,-1,-1,-1,-1,-1,-1,-1,-1,-1,-1,-1,-1,-1,-1,-1,-1,-1,-1,-1,-1,-1,-1,-1,-1,-1,-1,-1,-1,-1,-1,-1,-1,-1,-1,-1,-1,-1,-1,-1,-1,-1,-1,-1],"split_conditions":[8.86645E-1,5.2476443E-2,4.1876435E-1,3E1,1E0,3E1,1E0,1E0,1E0,1E0,1E0,1E0,5.2E1,1E0,3E1,1E0,-4.7659017E-2,-4.7659017E-2,1E0,1E0,1E0,4.1876435E-1,3E1,5.9E1,1.8E1,1E0,7.2E1,3E1,2E1,1E0,1E0,1E0,1E0,1E0,1.04E2,1.2E2,1E0,1E0,1E0,-3.9958887E-2,1E0,4.1876435E-1,4E0,1E0,3E1,-2.3195124E-1,6E1,4E0,7.2E1,4.5946117E-2,1E0,1E0,1.2E1,6.5E1,1E0,1.05E2,3E0,8.133835E-3,-3.3714563E-2,4E0,1E0,1E0,1E0,-4.8069004E-3,1.472224E-2,6.3943945E-2,-4.030249E-2,1.2925413E-2,2.8196632E-4,-1.2621201E-2,9.485613E-3,1.3523904E-2,5.8302034E-2,3.850226E-3,-5.9324678E-2,3.6331486E-2,2.7598891E-2,-7.586474E-2,2.7244715E-2,-3.0577874E-2,-1.346976E-2,3.5296127E-3,-2.5912797E-2,4.207882E-2,7.2841845E-2,-3.6208767E-2,7.8935055E-3,-3.0635311E-3,-5.0470937E-2,-4.836552E-2,-3.4959715E-2,-1.1412564E-2,-2.5079234E-2,-3.7195587E-3,5.1714756E-2,-2.2148577E-2,-5.207187E-3,-7.1859146E-3,-1.5927788E-2,1.6104344E-2,-3.1071141E-2,1.580033E-2,4.8777156E-2,6.1991453E-2,2.2110289E-2,-2.036235E-2,-3.186389E-4,1.0463095E-2,3.6172234E-2,-5.6676038E-2,-4.4684857E-2,-3.497063E-2,-1.3810064E-2,-4.2683773E-2,-2.9864354E-2,8.865704E-3,-4.2918492E-2,1.47403795E-2,6.828006E-2,-6.889179E-3,-5.087107E-2],"split_indices":[5,4,4,6,3,6,2,3,2,0,2,15,18,15,6,0,5,5,11,2,9,4,6,18,18,0,18,6,18,15,3,2,9,15,18,6,11,3,7,5,9,4,19,11,6,5,6,19,18,0,11,2,18,18,3,18,19,0,0,19,9,0,9,0,0,0,0,0,0,0,0,0,0,0,0,0,0,0,0,0,0,0,0,0,0,0,0,0,0,0,0,0,0,0,0,0,0,0,0,0,0,0,0,0,0,0,0,0,0,0,0,0,0,0,0,0,0,0,0,0,0],"split_type":[0,0,0,0,0,0,0,0,0,0,0,0,0,0,0,0,0,0,0,0,0,0,0,0,0,0,0,0,0,0,0,0,0,0,0,0,0,0,0,0,0,0,0,0,0,0,0,0,0,0,0,0,0,0,0,0,0,0,0,0,0,0,0,0,0,0,0,0,0,0,0,0,0,0,0,0,0,0,0,0,0,0,0,0,0,0,0,0,0,0,0,0,0,0,0,0,0,0,0,0,0,0,0,0,0,0,0,0,0,0,0,0,0,0,0,0,0,0,0,0,0],"sum_hessian":[4.3173547E4,3.475349E4,8.420058E3,1.9279973E4,1.5473517E4,4.4675264E3,3.9525312E3,1.1244061E4,8.0359116E3,7.2326973E3,8.240819E3,4.338195E3,1.2933191E2,1.2341566E3,2.7183745E3,5.542233E3,5.701827E3,1.0620183E3,6.9738936E3,5.5727627E3,1.6599346E3,9.9852435E2,7.242295E3,4.2729014E3,6.529312E1,7.1028404E1,5.830351E1,1.2148116E3,1.9344908E1,2.6503928E3,6.798167E1,4.471206E3,1.0710271E3,2.9118582E3,2.789969E3,7.8044666E2,2.8157162E2,6.614711E3,3.591825E2,1.5888187E3,3.983944E3,1.6362839E3,2.3650604E1,8.8353455E1,9.101709E2,4.709929E3,2.5323657E3,2.336194E3,1.9367073E3,6.4031267E0,5.8889996E1,2.9329218E1,4.169919E1,2.1429497E1,3.6874012E1,1.202623E3,1.21886015E1,3.8829055E0,1.5462003E1,2.6068577E3,4.3535324E1,2.9750223E1,3.823144E1,1.2212683E3,3.2499375E3,1.0543784E3,1.6648687E1,1.4589707E3,1.4528873E3,2.5591199E3,2.3084906E2,7.7698425E2,3.4624295E0,2.7667703E2,4.894585E0,2.7708242E3,3.8438867E3,6.487747E1,2.9430502E2,1.3061693E3,2.826495E2,3.2775178E3,7.064262E2,1.2185669E2,1.5144272E3,2.0204147E1,3.4464567E0,8.353299E1,4.820459E0,6.324714E2,2.7769955E2,2.0057252E3,2.7042039E3,2.5092263E3,2.3139261E1,2.126514E3,2.0968025E2,7.958079E2,1.1408994E3,5.4596004E1,4.293988E0,8.133348E0,2.119587E1,4.0959163E0,3.760327E1,1.21006565E1,9.328839E0,1.694314E1,1.9930872E1,1.1355106E3,6.711247E1,6.2622514E0,5.9263496E0,2.2155193E3,3.9133826E2,3.3179333E1,1.03559885E1,2.219406E1,7.556163E0,2.9838932E1,8.392509E0],"tree_param":{"num_deleted":"0","num_feature":"20","num_nodes":"121","size_leaf_vector":"1"}},{"base_weights":[2.5329103E-3,1.3826697E-1,-5.631703E-1,3.185599E-1,-8.540408E-2,-3.0239293E-1,-8.615409E-1,4.3922585E-1,1.22235626E-1,-4.965494E-1,3.917969E-3,-3.1566104E-1,2.9107925E-1,-1.0803014E0,-7.6389736E-1,1.0873951E-1,4.9588528E-1,1.4088936E-1,-1.082378E0,-5.546675E-1,-2.755402E-1,1.1301341E-1,-3.572416E-1,-3.070655E-1,-1.1662046E0,3.4345526E-1,-1.9516787E-2,-4.9639475E-3,-1.084255E0,-7.724796E-1,7.628453E-1,-6.928193E-1,1.2779056E-1,5.112909E-1,-6.7842656E-1,-1.543023E-1,2.0532954E-1,1.8784707E-2,-1.1455723E0,-1.6383447E-1,-5.955795E-1,-1.0870241E0,-2.1742095E-1,1.4641382E-1,-3.9039165E-1,1.9441459E-1,-4.2074046E-1,-3.7753254E-1,-2.2119679E-1,-1.0012432E0,-7.475037E-2,5.5482E-1,1.4503498E-1,-1.0898726E0,-6.8927586E-1,-8.8551116E-1,-6.810234E-1,3.0688176E-1,5.7828397E-2,-5.881085E-2,-2.6449328E-2,6.6955844E-3,-8.061514E-2,2.6855484E-2,5.052549E-3,-1.7908342E-2,-5.1187586E-2,-1.7520696E-3,-1.2584197E-2,1.21349525E-2,-1.4926921E-2,-6.213532E-2,-3.9507274E-2,3.5558238E-3,-1.7779328E-2,-2.8966105E-2,-5.5622216E-2,-8.638047E-3,-6.0305852E-2,1.9832436E-4,-2.3443317E-2,6.008238E-3,5.8607943E-2,-1.7841425E-2,-6.82363E-2,1.197145E-2,-8.3822876E-2,-2.0288425E-2,-7.721159E-2,-2.0481406E-2,-3.1014057E-3,-1.1543144E-2,4.0214486E-2,-5.38125E-2,-2.42419E-2,2.0074217E-2,3.622061E-2,-1.7895184E-2,1.4463236E-2,-5.4594975E-2,-2.9217279E-2,-5.5098007E-3,-4.783019E-2,-4.665138E-2,-3.1559E-2,-3.0331517E-2,-4.141558E-2,-1.8028436E-2,4.5276247E-2],"categories":[],"categories_nodes":[],"categories_segments":[],"categories_sizes":[],"default_left":[0,0,0,0,0,0,0,0,0,0,0,0,0,0,0,0,0,0,0,0,0,0,0,0,0,0,0,0,0,0,0,0,0,0,0,0,0,0,0,0,0,0,0,0,0,0,0,0,0,0,0,0,0,0,0,0,0,0,0,0,0,0,0,0,0,0,0,0,0,0,0,0,0,0,0,0,0,0,0,0,0,0,0,0,0,0,0,0,0,0,0,0,0,0,0,0,0,0,0,0,0,0,0,0,0,0,0,0,0],"id":9,"left_children":[1,3,5,7,9,11,13,15,17,19,21,23,25,27,29,31,33,35,37,39,41,43,45,47,49,51,-1,-1,53,55,57,59,61,63,65,67,69,-1,71,73,75,77,79,81,83,85,87,89,91,93,-1,95,97,99,101,103,105,107,-1,-1,-1,-1,-1,-1,-1,-1,-1,-1,-1,-1,-1,-1,-1,-1,-1,-1,-1,-1,-1,-1,-1,-1,-1,-1,-1,-1,-1,-1,-1,-1,-1,-1,-1,-1,-1,-1,-1,-1,-1,-1,-1,-1,-1,-1,-1,-1,-1,-1,-1],"loss_changes":[3.302475E3,1.398857E3,6.471926E2,4.5488403E2,5.686087E2,3.5078125E1,8.188672E1,2.2261353E2,1.6438202E2,3.5258484E1,5.011717E2,3.1269867E1,3.6094942E0,4.408325E0,3.5796265E1,2.6638346E1,1.8401294E2,1.3704037E2,1.0785599E1,3.4790283E1,2.6879765E1,1.6429782E2,1.0347061E2,2.590152E1,5.8636856E-1,3.6751614E0,0E0,0E0,1.7111816E0,2.6866455E1,2.2736816E0,2.4134064E0,1.8205664E1,1.06038574E2,1.4073635E1,1.4953953E1,1.1139459E2,0E0,2.5167084E0,9.461394E0,1.5814087E1,3.8180466E0,3.0134424E1,2.4643211E2,1.9222115E1,2.595361E1,4.3698456E1,2.3846893E1,1.9389969E1,5.565777E-1,0E0,7.296009E-1,3.6255207E0,3.9440918E-1,2.8308372E0,1.3653015E1,1.5593018E1,3.8338006E0,0E0,0E0,0E0,0E0,0E0,0E0,0E0,0E0,0E0,0E0,0E0,0E0,0E0,0E0,0E0,0E0,0E0,0E0,0E0,0E0,0E0,0E0,0E0,0E0,0E0,0E0,0E0,0E0,0E0,0E0,0E0,0E0,0E0,0E0,0E0,0E0,0E0,0E0,0E0,0E0,0E0,0E0,0E0,0E0,0E0,0E0,0E0,0E0,0E0,0E0,0E0],"parents":[2147483647,0,0,1,1,2,2,3,3,4,4,5,5,6,6,7,7,8,8,9,9,10,10,11,11,12,12,13,13,14,14,15,15,16,16,17,17,18,18,19,19,20,20,21,21,22,22,23,23,24,24,25,25,28,28,29,29,30,30,31,31,32,32,33,33,34,34,35,35,36,36,38,38,39,39,40,40,41,41,42,42,43,43,44,44,45,45,46,46,47,47,48,48,49,49,51,51,52,52,53,53,54,54,55,55,56,56,57,57],"right_children":[2,4,6,8,10,12,14,16,18,20,22,24,26,28,30,32,34,36,38,40,42,44,46,48,50,52,-1,-1,54,56,58,60,62,64,66,68,70,-1,72,74,76,78,80,82,84,86,88,90,92,94,-1,96,98,100,102,104,106,108,-1,-1,-1,-1,-1,-1,-1,-1,-1,-1,-1,-1,-1,-1,-1,-1,-1,-1,-1,-1,-1,-1,-1,-1,-1,-1,-1,-1,-1,-1,-1,-1,-1,-1,-1,-1,-1,-1,-1,-1,-1,-1,-1,-1,-1,-1,-1,-1,-1,-1,-1],"split_conditions":[8.86645E-1,5.2476443E-2,4.1876435E-1,-4.7659017E-2,1E0,1E0,1E0,1E0,1E0,-3.9958887E-2,1E0,1E0,1E0,1.2E1,1.25E2,9E0,1E0,1E0,1E0,4.1876435E-1,2.4E1,1E0,4.1876435E-1,5.9E1,6.2E1,5.2E1,-1.9516787E-2,-4.9639475E-3,1E0,5.9E1,1E0,2E0,1E0,1E0,5.2E1,5.2E1,1E0,1.8784707E-2,7.9E1,4.9E1,1E0,4.1876435E-1,6.2E1,1E0,1E0,1E0,1E0,4E0,1.1E2,6E1,-7.475037E-2,3.2E1,1E0,1E0,5E1,4E0,1E0,1.41E2,5.7828397E-2,-5.881085E-2,-2.6449328E-2,6.6955844E-3,-8.061514E-2,2.6855484E-2,5.052549E-3,-1.7908342E-2,-5.1187586E-2,-1.7520696E-3,-1.2584197E-2,1.21349525E-2,-1.4926921E-2,-6.213532E-2,-3.9507274E-2,3.5558238E-3,-1.7779328E-2,-2.8966105E-2,-5.5622216E-2,-8.638047E-3,-6.0305852E-2,1.9832436E-4,-2.3443317E-2,6.008238E-3,5.8607943E-2,-1.7841425E-2,-6.82363E-2,1.197145E-2,-8.3822876E-2,-2.0288425E-2,-7.721159E-2,-2.0481406E-2,-3.1014057E-3,-1.1543144E-2,4.0214486E-2,-5.38125E-2,-2.42419E-2,2.0074217E-2,3.622061E-2,-1.7895184E-2,1.4463236E-2,-5.4594975E-2,-2.9217279E-2,-5.5098007E-3,-4.783019E-2,-4.665138E-2,-3.1559E-2,-3.0331517E-2,-4.141558E-2,-1.8028436E-2,4.5276247E-2],"split_indices":[5,4,4,5,1,15,1,1,8,5,9,8,11,18,18,18,8,1,17,4,18,12,4,18,18,18,0,0,15,18,15,19,8,11,18,18,12,0,18,18,11,4,18,14,8,10,10,19,18,18,0,18,1,7,18,19,9,18,0,0,0,0,0,0,0,0,0,0,0,0,0,0,0,0,0,0,0,0,0,0,0,0,0,0,0,0,0,0,0,0,0,0,0,0,0,0,0,0,0,0,0,0,0,0,0,0,0,0,0],"split_type":[0,0,0,0,0,0,0,0,0,0,0,0,0,0,0,0,0,0,0,0,0,0,0,0,0,0,0,0,0,0,0,0,0,0,0,0,0,0,0,0,0,0,0,0,0,0,0,0,0,0,0,0,0,0,0,0,0,0,0,0,0,0,0,0,0,0,0,0,0,0,0,0,0,0,0,0,0,0,0,0,0,0,0,0,0,0,0,0,0,0,0,0,0,0,0,0,0,0,0,0,0,0,0,0,0,0,0,0,0],"sum_hessian":[4.3007812E4,3.4686188E4,8.321625E3,1.9205428E4,1.5480761E4,4.4418096E3,3.879815E3,1.1893581E4,7.3118467E3,2.7623503E3,1.2718411E4,4.3453E3,9.651021E1,1.1939044E3,2.6859104E3,1.7413304E3,1.0152251E4,7.201299E3,1.1054783E2,2.1856377E3,5.767125E2,9.76858E3,2.9498303E3,4.3032896E3,4.2010178E1,9.021842E1,6.2917924E0,4.99849E0,1.188906E3,2.6714531E3,1.4457372E1,3.9483315E1,1.7018472E3,1.0021431E4,1.3082024E2,1.2898276E3,5.911471E3,4.321064E0,1.0622676E2,2.0781621E2,1.9778215E3,3.7245945E1,5.394666E2,9.161624E3,6.0695654E2,3.0411838E2,2.645712E3,2.361112E3,1.9421772E3,3.0871237E1,1.1138942E1,4.2570526E1,4.7647892E1,1.1702493E3,1.8656645E1,1.1904221E3,1.481031E3,7.641408E0,6.8159633E0,8.275684E0,3.1207632E1,1.6968586E3,4.988531E0,9.427548E3,5.938827E2,6.908062E1,6.173962E1,5.808552E2,7.089724E2,5.5039834E3,4.0748776E2,8.1245544E1,2.4981216E1,9.343694E1,1.14379265E2,1.9197523E3,5.806931E1,4.67175E0,3.2574196E1,2.8719214E2,2.5227448E2,8.93421E3,2.2741388E2,5.8816473E2,1.8791813E1,2.9787674E2,6.2416387E0,2.612349E3,3.336276E1,2.1425408E3,2.1857129E2,1.9249058E3,1.7271492E1,2.5840233E1,5.031005E0,2.4434887E1,1.8135641E1,1.0134253E1,3.7513638E1,1.1642239E3,6.0254765E0,6.456658E0,1.2199987E1,1.00044775E3,1.8997433E2,9.878697E2,4.9316125E2,3.7221189E0,3.919289E0],"tree_param":{"num_deleted":"0","num_feature":"20","num_nodes":"109","size_leaf_vector":"1"}},{"base_weights":[3.703867E-3,1.3202113E-1,-5.3111005E-1,3.014452E-1,-7.842258E-2,-2.7754754E-1,-8.210583E-1,1.5277535E-1,5.113085E-1,1.7853947E-1,-3.0211982E-1,-3.015476E-1,5.09932E-1,-1.0508965E0,-7.1799904E-1,3.618604E-1,-5.2008476E-2,1.9281472E-1,5.605231E-1,-1.6704953E-1,1.3415765E0,-7.364878E-1,-2.4307051E-1,-2.931859E-1,-1.160124E0,5.8676934E-1,9.1978714E-2,-0E0,-1.054941E0,-7.409457E-1,1.02244E-1,1.6260584E-1,1.1881838E0,8.708166E-2,-1.9857341E-1,2.4754746E-1,4.564527E-2,5.742912E-1,-5.549236E-1,-4.971227E-1,-3.860986E-2,1.3694124E0,-4.2490992E-1,-2.244229E-1,-7.885131E-1,-3.4061515E-1,-6.1253354E-2,-3.6292532E-1,-2.086632E-1,-6.153676E-1,-1.3263605E0,8.089147E-1,4.2808378E-1,-6.188995E-2,4.0335927E-2,-1.0571967E0,-1.00545585E-2,-7.5414044E-1,5.4419428E-2,5.888609E-1,-2.7937555E-1,-6.5147625E-3,1.3614753E-2,6.1062302E-2,-4.5274395E-2,5.2759666E-3,-4.6689864E-2,-7.576408E-2,-9.198489E-3,8.831724E-3,1.8084327E-2,2.9643623E-3,-4.4235844E-2,2.6457965E-2,3.7892934E-2,-1.1188926E-2,-4.142465E-2,-2.843037E-2,-8.392055E-3,2.53183E-3,-2.2128804E-2,4.3024115E-2,7.0427805E-2,-5.0350368E-2,-8.756538E-3,-1.7859522E-2,1.04067875E-2,-4.306529E-2,-3.0901248E-2,-1.088347E-2,-2.2409564E-2,-2.7153306E-3,-8.276399E-2,-2.000487E-2,5.6445156E-4,-1.7806664E-2,-7.587064E-3,-9.641762E-3,-6.074012E-2,-6.931382E-2,-3.0057127E-2,4.6907928E-2,2.2228984E-2,-3.4537606E-3,2.9447759E-2,1.6833058E-3,-1.7126214E-2,-5.2312564E-2,-6.321853E-2,-4.4168964E-2,-3.4783285E-2,1.842236E-2,-4.8666637E-2,-4.0066693E-2,3.8959768E-2,-3.8679242E-3,-4.1771017E-2],"categories":[],"categories_nodes":[],"categories_segments":[],"categories_sizes":[],"default_left":[0,0,0,0,0,0,0,0,0,0,0,0,0,0,0,0,0,0,0,0,0,0,0,0,0,0,0,0,0,0,0,0,0,0,0,0,0,0,0,0,0,0,0,0,0,0,0,0,0,0,0,0,0,0,0,0,0,0,0,0,0,0,0,0,0,0,0,0,0,0,0,0,0,0,0,0,0,0,0,0,0,0,0,0,0,0,0,0,0,0,0,0,0,0,0,0,0,0,0,0,0,0,0,0,0,0,0,0,0,0,0,0,0,0,0,0,0],"id":10,"left_children":[1,3,5,7,9,11,13,15,17,19,21,23,25,27,29,31,33,35,37,39,41,43,45,47,49,51,53,-1,55,57,59,61,63,65,67,69,71,73,75,77,79,81,83,85,87,89,91,93,95,97,99,101,103,105,-1,107,-1,109,111,113,115,-1,-1,-1,-1,-1,-1,-1,-1,-1,-1,-1,-1,-1,-1,-1,-1,-1,-1,-1,-1,-1,-1,-1,-1,-1,-1,-1,-1,-1,-1,-1,-1,-1,-1,-1,-1,-1,-1,-1,-1,-1,-1,-1,-1,-1,-1,-1,-1,-1,-1,-1,-1,-1,-1,-1,-1],"loss_changes":[2.9388274E3,1.2314712E3,6.088843E2,5.9685034E2,8.855574E2,8.371243E1,9.06228E1,4.7967645E2,1.241709E2,2.8820947E3,2.1096942E2,3.0329346E1,4.0864563E0,5.1291504E0,5.0432373E1,9.123224E2,1.1540559E2,8.526909E0,1.05841064E2,2.342904E2,8.144556E1,2.5960999E1,1.2855643E2,2.4932709E1,2.697609E0,3.4183464E0,2.5150368E0,0E0,1.9526367E0,2.7392334E1,1.3840387E1,1.43577E2,7.566577E1,5.468119E1,5.2554497E1,6.1516457E0,3.6512938E0,5.570459E1,7.336643E0,3.627469E1,1.4358305E2,3.0781738E1,3.5132656E0,5.3966274E0,1.0408691E1,6.2253296E1,2.7796423E1,3.2425415E1,1.6057571E1,2.5578737E0,2.873726E-1,1.5435791E0,5.4295225E0,5.438988E-1,0E0,1.1358643E0,0E0,1.8553955E1,1.4250543E1,9.283325E0,4.533286E0,0E0,0E0,0E0,0E0,0E0,0E0,0E0,0E0,0E0,0E0,0E0,0E0,0E0,0E0,0E0,0E0,0E0,0E0,0E0,0E0,0E0,0E0,0E0,0E0,0E0,0E0,0E0,0E0,0E0,0E0,0E0,0E0,0E0,0E0,0E0,0E0,0E0,0E0,0E0,0E0,0E0,0E0,0E0,0E0,0E0,0E0,0E0,0E0,0E0,0E0,0E0,0E0,0E0,0E0,0E0,0E0],"parents":[2147483647,0,0,1,1,2,2,3,3,4,4,5,5,6,6,7,7,8,8,9,9,10,10,11,11,12,12,13,13,14,14,15,15,16,16,17,17,18,18,19,19,20,20,21,21,22,22,23,23,24,24,25,25,26,26,28,28,29,29,30,30,31,31,32,32,33,33,34,34,35,35,36,36,37,37,38,38,39,39,40,40,41,41,42,42,43,43,44,44,45,45,46,46,47,47,48,48,49,49,50,50,51,51,52,52,53,53,55,55,57,57,58,58,59,59,60,60],"right_children":[2,4,6,8,10,12,14,16,18,20,22,24,26,28,30,32,34,36,38,40,42,44,46,48,50,52,54,-1,56,58,60,62,64,66,68,70,72,74,76,78,80,82,84,86,88,90,92,94,96,98,100,102,104,106,-1,108,-1,110,112,114,116,-1,-1,-1,-1,-1,-1,-1,-1,-1,-1,-1,-1,-1,-1,-1,-1,-1,-1,-1,-1,-1,-1,-1,-1,-1,-1,-1,-1,-1,-1,-1,-1,-1,-1,-1,-1,-1,-1,-1,-1,-1,-1,-1,-1,-1,-1,-1,-1,-1,-1,-1,-1,-1,-1,-1,-1],"split_conditions":[8.86645E-1,5.2476443E-2,4.1876435E-1,3E1,1E0,3E1,1E0,1E0,1E0,1E0,1E0,1E0,9.1E1,1.2E1,3E1,1E0,-4.7659017E-2,-4.7659017E-2,1E0,1E0,1E0,4.1876435E-1,3E1,5.9E1,1E0,1E0,1.42E2,-0E0,1.4E2,1E0,1E0,1E0,1E0,1E0,1E0,-3.335954E-1,1.42E2,9.1E1,1E0,-3.9958887E-2,1E0,4.1876435E-1,5E1,-3.9958887E-2,3E1,-1.1822639E-1,1E0,4E0,1E0,6.2E1,4E0,1E0,3E0,1.25E2,4.0335927E-2,4E0,-1.00545585E-2,1E0,1E0,3.1E1,1E0,-6.5147625E-3,1.3614753E-2,6.1062302E-2,-4.5274395E-2,5.2759666E-3,-4.6689864E-2,-7.576408E-2,-9.198489E-3,8.831724E-3,1.8084327E-2,2.9643623E-3,-4.4235844E-2,2.6457965E-2,3.7892934E-2,-1.1188926E-2,-4.142465E-2,-2.843037E-2,-8.392055E-3,2.53183E-3,-2.2128804E-2,4.3024115E-2,7.0427805E-2,-5.0350368E-2,-8.756538E-3,-1.7859522E-2,1.04067875E-2,-4.306529E-2,-3.0901248E-2,-1.088347E-2,-2.2409564E-2,-2.7153306E-3,-8.276399E-2,-2.000487E-2,5.6445156E-4,-1.7806664E-2,-7.587064E-3,-9.641762E-3,-6.074012E-2,-6.931382E-2,-3.0057127E-2,4.6907928E-2,2.2228984E-2,-3.4537606E-3,2.9447759E-2,1.6833058E-3,-1.7126214E-2,-5.2312564E-2,-6.321853E-2,-4.4168964E-2,-3.4783285E-2,1.842236E-2,-4.8666637E-2,-4.0066693E-2,3.8959768E-2,-3.8679242E-3,-4.1771017E-2],"split_indices":[5,4,4,6,3,6,1,3,1,0,1,8,18,18,6,0,5,5,8,1,9,4,6,18,16,0,18,0,18,15,3,1,9,8,0,5,18,18,16,5,9,4,18,5,6,5,10,19,1,18,19,15,19,18,0,19,0,0,9,18,9,0,0,0,0,0,0,0,0,0,0,0,0,0,0,0,0,0,0,0,0,0,0,0,0,0,0,0,0,0,0,0,0,0,0,0,0,0,0,0,0,0,0,0,0,0,0,0,0,0,0,0,0,0,0,0,0],"split_type":[0,0,0,0,0,0,0,0,0,0,0,0,0,0,0,0,0,0,0,0,0,0,0,0,0,0,0,0,0,0,0,0,0,0,0,0,0,0,0,0,0,0,0,0,0,0,0,0,0,0,0,0,0,0,0,0,0,0,0,0,0,0,0,0,0,0,0,0,0,0,0,0,0,0,0,0,0,0,0,0,0,0,0,0,0,0,0,0,0,0,0,0,0,0,0,0,0,0,0,0,0,0,0,0,0,0,0,0,0,0,0,0,0,0,0,0,0],"sum_hessian":[4.282247E4,3.453699E4,8.285479E3,1.913324E4,1.5403748E4,4.421306E3,3.8641724E3,1.1200717E4,7.9325244E3,7.168739E3,8.235009E3,4.291265E3,1.300409E2,1.1931326E3,2.6710398E3,5.542017E3,5.658699E3,1.0626305E3,6.869894E3,5.5271514E3,1.6415873E3,9.839422E2,7.251067E3,4.2513193E3,3.9945698E1,1.093032E2,2.0737694E1,4.529945E0,1.1886027E3,2.5985625E3,7.247732E1,4.466347E3,1.0756698E3,2.903244E3,2.7554553E3,7.7357434E2,2.8905612E2,6.7866997E3,8.3194405E1,1.5472561E3,3.9798953E3,1.6163978E3,2.5189459E1,9.141516E1,8.9252704E2,4.7182886E3,2.5327783E3,2.3269133E3,1.924406E3,1.0579625E1,2.9366072E1,4.3574745E1,6.5728455E1,1.7700617E1,3.0370774E0,1.1851166E3,3.4860742E0,2.5563318E3,4.223075E1,3.173274E1,4.0744583E1,1.2165953E3,3.249752E3,1.0594047E3,1.6265081E1,2.8527168E3,5.052712E1,2.902328E1,2.726432E3,4.7924792E2,2.9432645E2,2.859076E2,3.148525E0,5.450954E3,1.3357452E3,3.8624493E1,4.4569912E1,1.2704253E3,2.768308E2,3.2602498E3,7.196453E2,1.1726792E2,1.4991299E3,6.532909E0,1.865655E1,7.025641E1,2.115875E1,6.222213E2,2.703057E2,2.2036968E3,2.5145916E3,2.5228806E3,9.897875E0,2.1168381E3,2.1007529E2,5.3398206E2,1.390424E3,7.07857E0,3.5010555E0,2.6155731E1,3.2103417E0,3.0799501E1,1.2775244E1,1.6056437E1,4.9672016E1,1.35951605E1,4.105456E0,1.1318516E3,5.3264942E1,7.913968E2,1.7649349E3,3.2913036E1,9.317715E0,3.3715491E0,2.836119E1,3.0853966E1,9.890616E0],"tree_param":{"num_deleted":"0","num_feature":"20","num_nodes":"117","size_leaf_vector":"1"}},{"base_weights":[3.1841532E-3,1.21956974E-1,-4.9336907E-1,3.1782013E-1,-5.1982325E-2,-5.136319E-1,2.4252279E-1,1.034901E-1,1.1984757E0,-2.2420134E-1,2.1215126E-1,-6.561388E-1,-4.501677E-1,2.8988457E-1,-3.938907E-1,-2.0949629E-1,2.1539561E-1,1.2162738E0,-1.0804828E0,-5.422789E-1,-1.8043831E-1,-1.0963274E0,2.2747082E-1,-6.635516E-1,-1.7512888E-2,-3.745566E-1,-5.8918184E-1,-7.737831E-2,3.6280873E-1,-3.7325244E-2,-2.3208214E-2,-2.892373E-1,-3.3643242E-2,9.074257E-2,4.160807E-1,1.2283161E0,-1.215713E0,-8.812117E-2,-3.6730528E-1,-5.5025274E-1,9.5293686E-2,-5.7151966E-2,-2.866674E-1,-1.8241305E-2,-5.9653636E-2,-1.9544692E-1,2.6826316E-1,-6.707789E-1,-1.14798196E-1,1.5197177E-1,-4.273537E-2,-3.8494053E-1,2.1747306E-1,-5.757867E-1,-1.1960222E0,1.698846E-2,-1.8870625E-1,4.5580018E-1,1.3137439E-1,-1.0359263E-2,8.2076015E-3,-1.40347425E-2,-6.060803E-2,-9.6639537E-4,-2.7021585E-2,1.7090228E-3,1.8260783E-2,6.6672214E-3,2.243662E-2,6.1967086E-2,-4.388502E-2,-8.528314E-2,-3.7270483E-2,-2.316896E-3,-5.39782E-2,-2.9657189E-2,-2.424882E-2,-1.01619195E-2,2.598857E-2,-2.5609669E-3,-8.175808E-2,-1.35244E-2,-5.2989572E-2,-7.4047833E-3,-3.873159E-2,1.4146439E-2,-3.6307137E-2,-2.8920118E-2,-3.4735847E-2,3.0215331E-3,-2.2661742E-2,3.4616147E-3,2.689083E-2,7.798489E-2,-1.9364871E-2,-3.0401325E-2,1.45313665E-2,-2.8393192E-2,-8.05791E-2,-6.636243E-2,-2.013944E-2,-2.4809712E-3,-1.665859E-2,-1.6566713E-3,2.4658034E-2,2.0972982E-2,-5.360228E-3],"categories":[],"categories_nodes":[],"categories_segments":[],"categories_sizes":[],"default_left":[0,0,0,0,0,0,0,0,0,0,0,0,0,0,0,0,0,0,0,0,0,0,0,0,0,0,0,0,0,0,0,0,0,0,0,0,0,0,0,0,0,0,0,0,0,0,0,0,0,0,0,0,0,0,0,0,0,0,0,0,0,0,0,0,0,0,0,0,0,0,0,0,0,0,0,0,0,0,0,0,0,0,0,0,0,0,0,0,0,0,0,0,0,0,0,0,0,0,0,0,0,0,0,0,0,0,0],"id":11,"left_children":[1,3,5,7,9,11,13,15,17,19,21,23,25,27,29,31,33,35,37,39,41,43,45,47,49,51,53,55,57,-1,59,61,63,65,67,69,71,-1,73,75,77,79,81,-1,-1,83,85,87,89,91,-1,93,95,97,99,-1,101,103,105,-1,-1,-1,-1,-1,-1,-1,-1,-1,-1,-1,-1,-1,-1,-1,-1,-1,-1,-1,-1,-1,-1,-1,-1,-1,-1,-1,-1,-1,-1,-1,-1,-1,-1,-1,-1,-1,-1,-1,-1,-1,-1,-1,-1,-1,-1,-1,-1],"loss_changes":[2.5116406E3,1.170873E3,1.22725586E2,3.0509507E3,8.280769E2,7.195044E1,6.7598553E0,4.5544943E2,1.2966211E2,1.5321912E2,1.441796E2,1.1577515E1,5.79032E1,5.580555E0,1.9412525E0,4.798201E1,2.3952856E2,9.345264E1,1.1300432E1,6.869507E0,1.2683368E2,5.299736E0,1.2258783E2,9.497559E0,4.3769836E0,2.2175446E1,1.4978149E1,1.6635592E0,3.5935593E0,0E0,3.40355E-1,1.8083282E1,7.6961374E0,9.170088E1,3.3757446E1,7.368848E1,2.1547966E0,0E0,2.936727E0,3.2885437E0,2.3105464E0,4.174298E1,6.466937E1,0E0,0E0,1.6937876E1,9.46362E1,4.7823486E0,2.0252466E0,7.0753187E-1,0E0,1.6663391E1,3.9113634E0,1.4534119E1,3.5607948E0,0E0,5.1331675E-1,2.296978E0,3.5920455E0,0E0,0E0,0E0,0E0,0E0,0E0,0E0,0E0,0E0,0E0,0E0,0E0,0E0,0E0,0E0,0E0,0E0,0E0,0E0,0E0,0E0,0E0,0E0,0E0,0E0,0E0,0E0,0E0,0E0,0E0,0E0,0E0,0E0,0E0,0E0,0E0,0E0,0E0,0E0,0E0,0E0,0E0,0E0,0E0,0E0,0E0,0E0,0E0],"parents":[2147483647,0,0,1,1,2,2,3,3,4,4,5,5,6,6,7,7,8,8,9,9,10,10,11,11,12,12,13,13,14,14,15,15,16,16,17,17,18,18,19,19,20,20,21,21,22,22,23,23,24,24,25,25,26,26,27,27,28,28,30,30,31,31,32,32,33,33,34,34,35,35,36,36,38,38,39,39,40,40,41,41,42,42,45,45,46,46,47,47,48,48,49,49,51,51,52,52,53,53,54,54,56,56,57,57,58,58],"right_children":[2,4,6,8,10,12,14,16,18,20,22,24,26,28,30,32,34,36,38,40,42,44,46,48,50,52,54,56,58,-1,60,62,64,66,68,70,72,-1,74,76,78,80,82,-1,-1,84,86,88,90,92,-1,94,96,98,100,-1,102,104,106,-1,-1,-1,-1,-1,-1,-1,-1,-1,-1,-1,-1,-1,-1,-1,-1,-1,-1,-1,-1,-1,-1,-1,-1,-1,-1,-1,-1,-1,-1,-1,-1,-1,-1,-1,-1,-1,-1,-1,-1,-1,-1,-1,-1,-1,-1,-1,-1],"split_conditions":[8.86645E-1,1E0,3E1,1E0,3E1,1E0,1E0,1E0,1E0,1E0,1E0,1E0,1E0,1E0,1E0,3E1,3E1,1E0,1E0,5E0,-1.1822639E-1,1E0,1E0,1E0,1E0,1E0,1E0,2E0,1E0,-3.7325244E-2,1E0,1E0,-3.9958887E-2,4E0,1E0,1E0,1E0,-8.812117E-2,-3.9958887E-2,3E0,-3.9958887E-2,1E0,1E0,-1.8241305E-2,-5.9653636E-2,1E0,1E0,2E0,1E0,1E0,-4.273537E-2,1E6,1E0,1E0,4E0,1.698846E-2,1E0,1E0,1E0,-1.0359263E-2,8.2076015E-3,-1.40347425E-2,-6.060803E-2,-9.6639537E-4,-2.7021585E-2,1.7090228E-3,1.8260783E-2,6.6672214E-3,2.243662E-2,6.1967086E-2,-4.388502E-2,-8.528314E-2,-3.7270483E-2,-2.316896E-3,-5.39782E-2,-2.9657189E-2,-2.424882E-2,-1.01619195E-2,2.598857E-2,-2.5609669E-3,-8.175808E-2,-1.35244E-2,-5.2989572E-2,-7.4047833E-3,-3.873159E-2,1.4146439E-2,-3.6307137E-2,-2.8920118E-2,-3.4735847E-2,3.0215331E-3,-2.2661742E-2,3.4616147E-3,2.689083E-2,7.798489E-2,-1.9364871E-2,-3.0401325E-2,1.45313665E-2,-2.8393192E-2,-8.05791E-2,-6.636243E-2,-2.013944E-2,-2.4809712E-3,-1.665859E-2,-1.6566713E-3,2.4658034E-2,2.0972982E-2,-5.360228E-3],"split_indices":[5,3,6,0,6,1,11,1,11,1,0,7,16,1,15,6,6,12,7,19,5,1,1,15,16,15,8,19,15,0,16,12,5,19,17,8,16,0,5,19,5,10,8,0,0,11,8,19,3,12,0,13,17,10,19,0,0,17,3,0,0,0,0,0,0,0,0,0,0,0,0,0,0,0,0,0,0,0,0,0,0,0,0,0,0,0,0,0,0,0,0,0,0,0,0,0,0,0,0,0,0,0,0,0,0,0,0],"split_type":[0,0,0,0,0,0,0,0,0,0,0,0,0,0,0,0,0,0,0,0,0,0,0,0,0,0,0,0,0,0,0,0,0,0,0,0,0,0,0,0,0,0,0,0,0,0,0,0,0,0,0,0,0,0,0,0,0,0,0,0,0,0,0,0,0,0,0,0,0,0,0,0,0,0,0,0,0,0,0,0,0,0,0,0,0,0,0,0,0,0,0,0,0,0,0,0,0,0,0,0,0,0,0,0,0,0,0],"sum_hessian":[4.2585375E4,3.4366137E4,8.219236E3,1.6164247E4,1.820189E4,7.9994106E3,2.1982626E2,1.3001283E4,3.1629634E3,1.1018315E4,7.1835757E3,2.4614302E3,5.5379805E3,2.05253E2,1.457326E1,3.423736E3,9.577547E3,3.138959E3,2.4004395E1,1.3309628E3,9.687353E3,8.223927E1,7.1013364E3,2.4329937E3,2.8436684E1,3.589844E3,1.9481361E3,3.3766212E1,1.7148679E2,6.810801E0,7.7624593E0,2.3547537E3,1.0689824E3,5.909121E3,3.668426E3,3.1240261E3,1.493283E1,1.1447167E1,1.2557228E1,1.3148127E3,1.6150032E1,4.484849E3,5.202504E3,1.0284167E1,7.19551E1,6.241516E2,6.4771846E3,2.4009675E3,3.2026123E1,2.423042E1,4.2062645E0,3.528475E3,6.136907E1,1.9081306E3,4.0005577E1,6.4916577E0,2.7274555E1,1.2133304E2,5.0153748E1,4.1324997E0,3.6299596E0,2.3345579E3,2.019584E1,1.0408177E3,2.8164688E1,4.9006973E3,1.00842377E3,3.8063068E2,3.2877954E3,3.1082126E3,1.5813567E1,5.923023E0,9.009807E0,9.487364E0,3.0698638E0,7.8765247E2,5.271602E2,9.649342E0,6.5006914E0,4.469143E3,1.57062E1,5.09731E3,1.05193855E2,5.7830096E2,4.5850647E1,6.383851E3,9.333381E1,5.001672E2,1.9008003E3,2.144746E1,1.0578665E1,2.1136557E1,3.0938623E0,3.4200768E0,3.525055E3,4.289234E0,5.7079834E1,1.8952782E3,1.2852334E1,3.364099E1,6.3645864E0,1.4933108E1,1.2341448E1,8.431197E0,1.1290184E2,2.2566084E1,2.7587664E1],"tree_param":{"num_deleted":"0","num_feature":"20","num_nodes":"107","size_leaf_vector":"1"}},{"base_weights":[-4.9463066E-4,1.1633327E-1,-4.8862478E-1,2.8084916E-1,-8.76782E-2,-2.4399526E-1,-7.720606E-1,1.416802E-1,4.7747597E-1,1.6026138E-1,-3.0303046E-1,-2.688692E-1,5.354661E-1,-9.913637E-1,-6.750881E-1,3.2611224E-1,-3.8069557E-2,2.0816551E-1,5.1954746E-1,-1.6140349E-1,1.2581533E0,-7.169784E-1,-2.4808396E-1,-2.605294E-1,-1.1491079E0,6.824956E-1,3.4667924E-1,-1.0057074E0,-2.0921351E-1,-6.931395E-1,-2.770166E-3,1.5210907E-1,1.0844903E0,1.01817735E-1,-1.8527928E-1,2.1449651E-1,-4.3858394E-2,5.31015E-1,-4.4789383E-1,-4.7821093E-1,-3.5813455E-2,1.2696705E0,-8.956834E-1,-1.9035739E-1,-7.707436E-1,-3.4016165E-1,-7.449016E-2,-3.740084E-1,-2.1014406E-1,-7.3439196E-2,-1.0046535E0,7.5797665E-1,4.5763925E-1,4.1406235E-1,-2.632835E-2,-9.0781E-1,-1.03891E0,-1.2900827E-2,-3.802973E-1,-7.040117E-1,-2.2425722E-2,6.0455775E-1,-4.473394E-1,1.5802918E-2,-1.3485748E-3,5.546238E-2,-6.965966E-2,5.9726043E-3,-4.4157848E-2,-8.15118E-3,-5.2701533E-2,1.149468E-2,-1.2381992E-2,2.7705053E-2,4.601637E-3,-2.760517E-2,2.11138E-3,-2.6840871E-2,-1.0479826E-2,-4.3228064E-3,1.3808248E-2,3.758199E-2,6.559571E-2,-1.5122994E-2,-7.44674E-2,4.5423523E-2,-1.4830962E-2,-3.403699E-2,-4.2425733E-2,-9.1018475E-4,-1.9431436E-2,7.6317325E-2,-4.170128E-3,-1.9304123E-2,1.3287611E-2,-1.5702652E-2,-7.080859E-3,4.812339E-3,-5.9500672E-2,5.099396E-2,2.7314374E-2,1.1094174E-2,5.2197125E-2,-1.6356398E-3,2.6699385E-2,-5.0075393E-2,-3.5691794E-2,-5.8004525E-2,-4.85753E-2,-1.0810559E-2,1.637711E-2,-3.8722385E-2,-1.4671849E-3,-3.7168503E-2,-2.6972268E-2,-6.701311E-2,6.2276106E-3,1.6358415E-2,6.860346E-2,-3.2986037E-2,-5.027153E-3],"categories":[],"categories_nodes":[],"categories_segments":[],"categories_sizes":[],"default_left":[0,0,0,0,0,0,0,0,0,0,0,0,0,0,0,0,0,0,0,0,0,0,0,0,0,0,0,0,0,0,0,0,0,0,0,0,0,0,0,0,0,0,0,0,0,0,0,0,0,0,0,0,0,0,0,0,0,0,0,0,0,0,0,0,0,0,0,0,0,0,0,0,0,0,0,0,0,0,0,0,0,0,0,0,0,0,0,0,0,0,0,0,0,0,0,0,0,0,0,0,0,0,0,0,0,0,0,0,0,0,0,0,0,0,0,0,0,0,0,0,0],"id":12,"left_children":[1,3,5,7,9,11,13,15,17,19,21,23,25,27,29,31,33,35,37,39,41,43,45,47,49,51,53,55,57,59,61,63,65,67,69,71,-1,73,75,77,79,81,83,85,87,89,91,93,95,-1,97,99,101,103,-1,105,107,109,111,113,115,117,119,-1,-1,-1,-1,-1,-1,-1,-1,-1,-1,-1,-1,-1,-1,-1,-1,-1,-1,-1,-1,-1,-1,-1,-1,-1,-1,-1,-1,-1,-1,-1,-1,-1,-1,-1,-1,-1,-1,-1,-1,-1,-1,-1,-1,-1,-1,-1,-1,-1,-1,-1,-1,-1,-1,-1,-1,-1,-1],"loss_changes":[2.42809E3,1.1530903E3,5.698342E2,5.2030457E2,8.1896423E2,8.571744E1,8.015674E1,3.692907E2,8.9118774E1,2.5181113E3,1.8642499E2,3.097409E1,3.4561272E0,1.2741089E1,3.2019653E1,7.252127E2,1.16197754E2,7.4526405E0,7.5859375E1,2.1935306E2,4.1253418E1,2.6970795E1,1.15789764E2,2.410907E1,1.1299896E-1,8.137207E-1,3.8667936E0,2.5804443E0,7.0718884E-1,1.8688354E1,1.9232622E1,1.3136896E2,6.443787E1,5.0277054E1,5.2865654E1,7.6089134E0,0E0,6.8152954E1,4.17474E0,2.445401E1,6.2420975E1,3.3986816E1,2.5870314E0,1.0779755E1,5.3704834E0,7.384595E1,3.5847923E1,1.0171921E1,2.0841156E1,0E0,6.5016594E0,2.3189926E0,2.6609468E0,3.1972332E0,0E0,4.536789E0,5.5740356E0,8.712787E-1,1.5080528E0,1.588147E1,8.472637E0,5.775983E0,2.895978E0,0E0,0E0,0E0,0E0,0E0,0E0,0E0,0E0,0E0,0E0,0E0,0E0,0E0,0E0,0E0,0E0,0E0,0E0,0E0,0E0,0E0,0E0,0E0,0E0,0E0,0E0,0E0,0E0,0E0,0E0,0E0,0E0,0E0,0E0,0E0,0E0,0E0,0E0,0E0,0E0,0E0,0E0,0E0,0E0,0E0,0E0,0E0,0E0,0E0,0E0,0E0,0E0,0E0,0E0,0E0,0E0,0E0,0E0],"parents":[2147483647,0,0,1,1,2,2,3,3,4,4,5,5,6,6,7,7,8,8,9,9,10,10,11,11,12,12,13,13,14,14,15,15,16,16,17,17,18,18,19,19,20,20,21,21,22,22,23,23,24,24,25,25,26,26,27,27,28,28,29,29,30,30,31,31,32,32,33,33,34,34,35,35,37,37,38,38,39,39,40,40,41,41,42,42,43,43,44,44,45,45,46,46,47,47,48,48,50,50,51,51,52,52,53,53,55,55,56,56,57,57,58,58,59,59,60,60,61,61,62,62],"right_children":[2,4,6,8,10,12,14,16,18,20,22,24,26,28,30,32,34,36,38,40,42,44,46,48,50,52,54,56,58,60,62,64,66,68,70,72,-1,74,76,78,80,82,84,86,88,90,92,94,96,-1,98,100,102,104,-1,106,108,110,112,114,116,118,120,-1,-1,-1,-1,-1,-1,-1,-1,-1,-1,-1,-1,-1,-1,-1,-1,-1,-1,-1,-1,-1,-1,-1,-1,-1,-1,-1,-1,-1,-1,-1,-1,-1,-1,-1,-1,-1,-1,-1,-1,-1,-1,-1,-1,-1,-1,-1,-1,-1,-1,-1,-1,-1,-1,-1,-1,-1,-1],"split_conditions":[8.86645E-1,5.2476443E-2,4.1876435E-1,3E1,1E0,3E1,1E0,1E0,1E0,1E0,1E0,1E0,5.2E1,1E0,3E1,1E0,-4.7659017E-2,2.48E2,1E0,1E0,1E0,4.1876435E-1,3E1,1E6,5.3E1,1E0,5.2476443E-2,4.9E1,5E1,1E0,1E0,-4.7659017E-2,1E0,1E0,1E0,-3.9958887E-2,-4.3858394E-2,1E0,4E0,-3.9958887E-2,1.02E2,4.1876435E-1,-1.1822639E-1,1E1,-1.653792E-1,4.1876435E-1,1E6,1E0,5.7E1,-7.3439196E-2,5.5E1,1E0,5.1E1,6.5E1,-2.632835E-2,2.6E1,5.9E1,4.8E1,7.2E1,8.6E1,2.8E1,1E0,7.2E1,1.5802918E-2,-1.3485748E-3,5.546238E-2,-6.965966E-2,5.9726043E-3,-4.4157848E-2,-8.15118E-3,-5.2701533E-2,1.149468E-2,-1.2381992E-2,2.7705053E-2,4.601637E-3,-2.760517E-2,2.11138E-3,-2.6840871E-2,-1.0479826E-2,-4.3228064E-3,1.3808248E-2,3.758199E-2,6.559571E-2,-1.5122994E-2,-7.44674E-2,4.5423523E-2,-1.4830962E-2,-3.403699E-2,-4.2425733E-2,-9.1018475E-4,-1.9431436E-2,7.6317325E-2,-4.170128E-3,-1.9304123E-2,1.3287611E-2,-1.5702652E-2,-7.080859E-3,4.812339E-3,-5.9500672E-2,5.099396E-2,2.7314374E-2,1.1094174E-2,5.2197125E-2,-1.6356398E-3,2.6699385E-2,-5.0075393E-2,-3.5691794E-2,-5.8004525E-2,-4.85753E-2,-1.0810559E-2,1.637711E-2,-3.8722385E-2,-1.4671849E-3,-3.7168503E-2,-2.6972268E-2,-6.701311E-2,6.2276106E-3,1.6358415E-2,6.860346E-2,-3.2986037E-2,-5.027153E-3],"split_indices":[5,4,4,6,3,6,1,3,1,0,1,8,18,15,6,0,5,18,8,1,11,4,6,13,18,15,4,18,18,15,3,5,8,8,8,5,0,11,19,5,18,4,5,18,5,4,13,7,18,0,18,0,18,18,0,18,18,18,18,18,18,0,18,0,0,0,0,0,0,0,0,0,0,0,0,0,0,0,0,0,0,0,0,0,0,0,0,0,0,0,0,0,0,0,0,0,0,0,0,0,0,0,0,0,0,0,0,0,0,0,0,0,0,0,0,0,0,0,0,0,0],"split_type":[0,0,0,0,0,0,0,0,0,0,0,0,0,0,0,0,0,0,0,0,0,0,0,0,0,0,0,0,0,0,0,0,0,0,0,0,0,0,0,0,0,0,0,0,0,0,0,0,0,0,0,0,0,0,0,0,0,0,0,0,0,0,0,0,0,0,0,0,0,0,0,0,0,0,0,0,0,0,0,0,0,0,0,0,0,0,0,0,0,0,0,0,0,0,0,0,0,0,0,0,0,0,0,0,0,0,0,0,0,0,0,0,0,0,0,0,0,0,0,0,0],"sum_hessian":[4.257509E4,3.435355E4,8.221539E3,1.9017695E4,1.5335854E4,4.414049E3,3.8074907E3,1.1137207E4,7.880489E3,7.1284785E3,8.207375E3,4.278304E3,1.3574457E2,1.1642612E3,2.6432295E3,5.496881E3,5.6403267E3,1.0658754E3,6.8146133E3,5.513788E3,1.6146903E3,9.601406E2,7.2472344E3,4.2395464E3,3.8757866E1,7.4543945E1,6.120062E1,1.1428883E3,2.1372915E1,2.5739407E3,6.9288704E1,4.4721235E3,1.0247571E3,2.8919016E3,2.748425E3,1.0605833E3,5.292116E0,6.735331E3,7.9282166E1,1.564259E3,3.949529E3,1.6065566E3,8.133734E0,8.953748E1,8.7060315E2,4.73445E3,2.5127844E3,1.3009994E3,2.938547E3,8.994064E0,2.9763803E1,5.3701466E1,2.0842482E1,5.741092E1,3.7897022E0,2.973904E2,8.454979E2,1.072559E1,1.0647325E1,2.5326875E3,4.1253155E1,2.9036715E1,4.025199E1,2.3345881E3,2.1375356E3,1.0152056E3,9.551402E0,2.8420005E3,4.990108E1,2.6810447E3,6.738027E1,1.0270826E3,3.3500618E1,6.3983516E3,3.3697986E2,6.5444855E1,1.3837311E1,1.2829691E3,2.8129E2,3.3988462E3,5.506828E2,1.22727264E2,1.4838293E3,4.9076524E0,3.2260814E0,7.1465297E0,8.239095E1,4.0867978E2,4.6192334E2,6.199139E2,4.114536E3,1.2907298E1,2.499877E3,1.2774434E3,2.3556028E1,1.1657897E3,1.7727574E3,4.280727E0,2.5483076E1,2.208617E1,3.1615295E1,1.5969901E1,4.87258E0,1.212675E1,4.528417E1,1.9737236E2,1.0001804E2,2.9587424E2,5.4962366E2,7.1276507E0,3.597939E0,4.312449E0,6.3348756E0,2.0405388E3,4.921488E2,3.3929348E0,3.7860218E1,2.2471691E1,6.5650234E0,2.422543E1,1.6026562E1],"tree_param":{"num_deleted":"0","num_feature":"20","num_nodes":"121","size_leaf_vector":"1"}},{"base_weights":[-1.2975129E-3,1.0859263E-1,-4.6321878E-1,2.6843792E-1,-9.029912E-2,-2.2855899E-1,-7.3919237E-1,1.370465E-1,4.5498288E-1,-4.287497E-1,-1.738718E-2,-2.4782978E-1,3.826931E-1,-9.392517E-1,-6.5093005E-1,1.531985E-1,-1.0263662E0,1.985481E-1,4.9494836E-1,-4.8907292E-1,-1.9903907E-1,7.3933266E-2,-3.2447624E-1,-2.563835E-1,3.2633543E-1,4.3448433E-1,-3.0985842E-2,-9.524122E-1,-2.682461E-1,-6.914811E-1,-4.26263E-1,-1.0165995E-1,2.0913437E-1,1.21255994E-1,-1.0801758E0,2.5660163E-1,4.3097932E-2,5.062013E-1,-4.522013E-1,-1.4772911E-1,-5.238104E-1,-9.196115E-2,-5.944512E-1,1.9856468E-3,3.4543338E-1,2.5615552E-1,-3.9157572E-1,-2.7727157E-1,-5.8488805E-2,4.0093017E-1,-1.3934746E-2,9.328381E-2,4.9322844E-1,-9.5767546E-1,-4.2717686E-1,7.825087E-2,-5.38721E-1,-7.037952E-1,-1.9949387E-1,-4.668738E-1,5.87312E-1,-3.9279226E-2,-3.8850051E-3,1.575016E-2,5.003808E-3,-3.9294817E-2,5.6692548E-2,-5.8952387E-2,-3.0907854E-2,9.678096E-3,1.8020395E-2,1.1455362E-3,5.183747E-2,2.5511816E-2,-7.215091E-2,-4.8432667E-3,-3.648308E-2,5.3274436E-3,-2.404691E-2,-2.548561E-2,-4.9663708E-2,6.2461584E-3,-1.6827842E-2,7.7324295E-3,-3.415918E-2,-2.4282502E-3,1.1148444E-2,2.0540545E-2,-4.652184E-2,1.52904615E-2,-7.922559E-2,-2.4301924E-2,-8.564882E-3,-1.4725099E-2,2.6218821E-3,-5.848146E-4,-3.8790222E-2,4.611961E-2,1.623148E-2,1.093778E-2,-2.0305462E-2,2.2818906E-2,5.2334946E-2,-4.9604148E-2,-4.5221116E-2,-1.1502395E-2,-3.4081846E-2,-6.553025E-3,2.2603344E-2,-3.748731E-2,-6.9970377E-3,-3.589496E-2,-1.8235236E-2,-4.685932E-3,-5.1651504E-2,-3.5724852E-2,-1.903201E-2,4.8568744E-2,-1.08476E-2],"categories":[],"categories_nodes":[],"categories_segments":[],"categories_sizes":[],"default_left":[0,0,0,0,0,0,0,0,0,0,0,0,0,0,0,0,0,0,0,0,0,0,0,0,0,0,0,0,0,0,0,0,0,0,0,0,0,0,0,0,0,0,0,0,0,0,0,0,0,0,0,0,0,0,0,0,0,0,0,0,0,0,0,0,0,0,0,0,0,0,0,0,0,0,0,0,0,0,0,0,0,0,0,0,0,0,0,0,0,0,0,0,0,0,0,0,0,0,0,0,0,0,0,0,0,0,0,0,0,0,0,0,0,0,0,0,0,0,0],"id":13,"left_children":[1,3,5,7,9,11,13,15,17,19,21,23,25,27,29,31,33,35,37,39,41,43,45,47,49,51,-1,53,55,57,59,61,63,65,67,69,71,73,75,77,79,81,83,85,87,89,91,93,95,97,-1,99,101,103,105,107,109,111,113,115,117,-1,-1,-1,-1,-1,-1,-1,-1,-1,-1,-1,-1,-1,-1,-1,-1,-1,-1,-1,-1,-1,-1,-1,-1,-1,-1,-1,-1,-1,-1,-1,-1,-1,-1,-1,-1,-1,-1,-1,-1,-1,-1,-1,-1,-1,-1,-1,-1,-1,-1,-1,-1,-1,-1,-1,-1,-1,-1],"loss_changes":[2.1465176E3,1.0860431E3,5.260205E2,4.6409106E2,3.755644E2,5.183687E1,6.5163086E1,2.0892162E2,8.003967E1,3.7214264E1,3.5128433E2,2.0999786E1,7.234577E0,9.693359E0,2.323059E1,1.5631693E2,9.627762E0,9.500175E0,7.238989E1,2.5177002E1,2.3718184E1,1.8855176E2,1.1197772E2,1.7305023E1,2.9584541E0,2.472849E0,0E0,2.5431519E0,2.2883272E0,1.3072388E1,1.6713737E1,3.2190746E1,1.0373038E2,7.938362E0,5.7425385E0,4.9078674E0,5.6703515E0,5.3268677E1,7.725359E0,1.6941795E1,1.2167603E1,2.3642752E1,8.10899E0,8.529801E1,1.6900595E2,2.758232E1,5.3418427E1,2.1609802E1,1.3424296E1,1.8226147E0,0E0,1.3465757E0,1.5996914E0,9.393921E-1,4.084115E-1,9.5224154E-1,9.399128E-1,9.872314E0,4.6584187E0,7.8381577E0,5.1496134E0,0E0,0E0,0E0,0E0,0E0,0E0,0E0,0E0,0E0,0E0,0E0,0E0,0E0,0E0,0E0,0E0,0E0,0E0,0E0,0E0,0E0,0E0,0E0,0E0,0E0,0E0,0E0,0E0,0E0,0E0,0E0,0E0,0E0,0E0,0E0,0E0,0E0,0E0,0E0,0E0,0E0,0E0,0E0,0E0,0E0,0E0,0E0,0E0,0E0,0E0,0E0,0E0,0E0,0E0,0E0,0E0,0E0,0E0],"parents":[2147483647,0,0,1,1,2,2,3,3,4,4,5,5,6,6,7,7,8,8,9,9,10,10,11,11,12,12,13,13,14,14,15,15,16,16,17,17,18,18,19,19,20,20,21,21,22,22,23,23,24,24,25,25,27,27,28,28,29,29,30,30,31,31,32,32,33,33,34,34,35,35,36,36,37,37,38,38,39,39,40,40,41,41,42,42,43,43,44,44,45,45,46,46,47,47,48,48,49,49,51,51,52,52,53,53,54,54,55,55,56,56,57,57,58,58,59,59,60,60],"right_children":[2,4,6,8,10,12,14,16,18,20,22,24,26,28,30,32,34,36,38,40,42,44,46,48,50,52,-1,54,56,58,60,62,64,66,68,70,72,74,76,78,80,82,84,86,88,90,92,94,96,98,-1,100,102,104,106,108,110,112,114,116,118,-1,-1,-1,-1,-1,-1,-1,-1,-1,-1,-1,-1,-1,-1,-1,-1,-1,-1,-1,-1,-1,-1,-1,-1,-1,-1,-1,-1,-1,-1,-1,-1,-1,-1,-1,-1,-1,-1,-1,-1,-1,-1,-1,-1,-1,-1,-1,-1,-1,-1,-1,-1,-1,-1,-1,-1,-1,-1],"split_conditions":[8.86645E-1,5.2476443E-2,4.1876435E-1,3E1,1E0,3E1,1E0,1E0,1E0,-3.9958887E-2,1E0,1E0,5.2476443E-2,1E0,4E0,1E0,2E1,-4.7659017E-2,1E0,4.1876435E-1,1E0,1E0,4.1876435E-1,4E0,1E0,1E0,-3.0985842E-2,3E1,5E1,3E1,1E0,9E0,-4.7659017E-2,1.9E1,4E0,-3.335954E-1,6E1,1E0,1E0,-1.653792E-1,1E0,6.2E1,4.1876435E-1,4E0,1E0,1E0,3E1,1.04E2,1E0,1.8E1,-1.3934746E-2,9.1E1,1.41E2,6E1,6.5E1,3E0,1.07E2,1.06E2,1E0,1E0,1E0,-3.9279226E-2,-3.8850051E-3,1.575016E-2,5.003808E-3,-3.9294817E-2,5.6692548E-2,-5.8952387E-2,-3.0907854E-2,